tree
version=v4
num_class=1
num_tree_per_iteration=1
label_index=0
max_feature_idx=245
objective=binary sigmoid:1
feature_names=Column_0 Column_1 Column_2 Column_3 Column_4 Column_5 Column_6 Column_7 Column_8 Column_9 Column_10 Column_11 Column_12 Column_13 Column_14 Column_15 Column_16 Column_17 Column_18 Column_19 Column_20 Column_21 Column_22 Column_23 Column_24 Column_25 Column_26 Column_27 Column_28 Column_29 Column_30 Column_31 Column_32 Column_33 Column_34 Column_35 Column_36 Column_37 Column_38 Column_39 Column_40 Column_41 Column_42 Column_43 Column_44 Column_45 Column_46 Column_47 Column_48 Column_49 Column_50 Column_51 Column_52 Column_53 Column_54 Column_55 Column_56 Column_57 Column_58 Column_59 Column_60 Column_61 Column_62 Column_63 Column_64 Column_65 Column_66 Column_67 Column_68 Column_69 Column_70 Column_71 Column_72 Column_73 Column_74 Column_75 Column_76 Column_77 Column_78 Column_79 Column_80 Column_81 Column_82 Column_83 Column_84 Column_85 Column_86 Column_87 Column_88 Column_89 Column_90 Column_91 Column_92 Column_93 Column_94 Column_95 Column_96 Column_97 Column_98 Column_99 Column_100 Column_101 Column_102 Column_103 Column_104 Column_105 Column_106 Column_107 Column_108 Column_109 Column_110 Column_111 Column_112 Column_113 Column_114 Column_115 Column_116 Column_117 Column_118 Column_119 Column_120 Column_121 Column_122 Column_123 Column_124 Column_125 Column_126 Column_127 Column_128 Column_129 Column_130 Column_131 Column_132 Column_133 Column_134 Column_135 Column_136 Column_137 Column_138 Column_139 Column_140 Column_141 Column_142 Column_143 Column_144 Column_145 Column_146 Column_147 Column_148 Column_149 Column_150 Column_151 Column_152 Column_153 Column_154 Column_155 Column_156 Column_157 Column_158 Column_159 Column_160 Column_161 Column_162 Column_163 Column_164 Column_165 Column_166 Column_167 Column_168 Column_169 Column_170 Column_171 Column_172 Column_173 Column_174 Column_175 Column_176 Column_177 Column_178 Column_179 Column_180 Column_181 Column_182 Column_183 Column_184 Column_185 Column_186 Column_187 Column_188 Column_189 Column_190 Column_191 Column_192 Column_193 Column_194 Column_195 Column_196 Column_197 Column_198 Column_199 Column_200 Column_201 Column_202 Column_203 Column_204 Column_205 Column_206 Column_207 Column_208 Column_209 Column_210 Column_211 Column_212 Column_213 Column_214 Column_215 Column_216 Column_217 Column_218 Column_219 Column_220 Column_221 Column_222 Column_223 Column_224 Column_225 Column_226 Column_227 Column_228 Column_229 Column_230 Column_231 Column_232 Column_233 Column_234 Column_235 Column_236 Column_237 Column_238 Column_239 Column_240 Column_241 Column_242 Column_243 Column_244 Column_245
feature_infos=[-4.3979578018188477:6.3395524024963379] [-0.84547090530395508:1.5021556615829468] [-1.0535497665405273:0.94917196035385132] [-2.432354211807251:2.9607002735137939] [-1.0444316864013672:2.2209329605102539] [-1.8783835172653198:1.1478567123413086] [-1.3948608636856079:1.35194993019104] [-1.3464387655258179:1.358704686164856] [-3.1213142871856689:0.70697885751724243] [-3.7558243274688721:4.9560055732727051] [-1.8110774755477905:1.7444039583206177] [-2.1902282238006592:1.4793118238449097] [-1.8536816835403442:2.0964581966400146] [-2.5672364234924316:0.89981406927108765] none [-0.26463666558265686:3.7787661552429199] [-0.20161563158035278:4.9599332809448242] [-0.72217369079589844:1.3847084045410156] [-1.458951473236084:1.7428919076919556] [-2.035576343536377:0.6107025146484375] [-0.62134438753128052:1.6094133853912354] [-2.0381128787994385:0.58455514907836914] [-1.2203917503356934:7.1483116149902344] [-1.2136530876159668:7.2375741004943848] [-0.058291509747505188:61.199741363525391] [-0.40817153453826904:11.430163383483887] [-0.47896558046340942:5.3076248168945312] [-1.0963445901870728:7.1112780570983887] [-0.26472032070159912:13.391178131103516] [-0.41836890578269958:10.810678482055664] [-0.82000178098678589:5.0705933570861816] [-0.40748640894889832:10.835182189941406] [-1.1822167634963989:7.582298755645752] [-0.30234301090240479:12.301582336425781] [-1.1788425445556641:4.3336358070373535] [-1.1419734954833984:6.6392059326171875] [-0.57898342609405518:3.7545046806335449] [-0.55396145582199097:3.8924815654754639] [-0.3203178346157074:14.284134864807129] [-0.56741476058959961:4.2682604789733887] [-0.3070356547832489:11.672524452209473] [-0.1604115217924118:14.805588722229004] [-0.10532733052968979:26.5924072265625] [-0.2042989581823349:11.929819107055664] [-0.41063651442527771:3.0254747867584229] [-0.58694952726364136:4.1755499839782715] [-0.48449498414993286:4.1630945205688477] [-0.14782318472862244:12.962373733520508] [-0.086704611778259277:35.088993072509766] [-0.13483996689319611:16.828180313110352] [-0.68193447589874268:3.744403600692749] [-0.90226060152053833:1.1083477735519409] [-0.88095128536224365:1.1945837736129761] [-0.86120575666427612:1.2933392524719238] none [-0.73908919095993042:1.8362106084823608] [-1.225695013999939:1.2847141027450562] [-0.64313042163848877:2.9110386371612549] [-0.62944298982620239:2.2590348720550537] [-0.66522520780563354:1.6028403043746948] [-0.88843905925750732:1.1255697011947632] [-0.85482150316238403:8.4591464996337891] [-0.82879436016082764:7.9113116264343262] [-0.73229116201400757:9.1028842926025391] [-0.7170143723487854:10.374042510986328] [-0.855735182762146:8.4689311981201172] [-0.8368028998374939:11.59858226776123] [-0.86766988039016724:10.651628494262695] [-0.85671108961105347:10.356813430786133] [-0.4802832305431366:9.3424901962280273] [-0.8738856315612793:5.0046324729919434] [-0.89128708839416504:10.268947601318359] [-2.3614344596862793:0.42347139120101929] [-0.37259778380393982:20.289735794067383] [-0.34994691610336304:37.921577453613281] [-1.4220461845397949:12.784842491149902] [-1.3702504634857178:26.791616439819336] [-0.64096212387084961:7.627479076385498] [-0.62136721611022949:16.63438606262207] [-0.3831787109375:19.884445190429688] [-0.37988185882568359:35.489860534667969] [-0.71522605419158936:5.4051213264465332] [-0.72799563407897949:7.0014142990112305] [-0.81234019994735718:53.343452453613281] [-0.77380973100662231:48.162509918212891] [-0.88760685920715332:8.8773002624511719] [-0.90896445512771606:10.19544506072998] [-1.4473748207092285:42.900630950927734] [-0.37116625905036926:13.760162353515625] [-0.36598765850067139:18.623924255371094] [-0.35675495862960815:31.566410064697266] [-0.3460715115070343:29.092714309692383] [-1.4096102714538574:10.49925422668457] [-1.3455599546432495:11.288419723510742] [-0.36651745438575745:19.36726188659668] [-0.35353696346282959:17.420940399169922] [-0.63973432779312134:9.6315279006958008] [-0.62204927206039429:8.9402236938476562] [-0.84990191459655762:10.279377937316895] [-1.1039445400238037:32.923500061035156] [-1.411790132522583:10.52393627166748] [-1.3559795618057251:9.5720033645629883] [-1.3350580930709839:42.631511688232422] [-1.2454943656921387:38.333644866943359] [-0.29665076732635498:30.107387542724609] [-0.28425094485282898:26.936452865600586] [-0.30407530069351196:26.764577865600586] [-0.21825079619884491:31.023746490478516] [-0.31891810894012451:34.983043670654297] [-0.28883674740791321:32.568855285644531] [-0.10987254232168198:168.26576232910156] [-0.21983034908771515:87.8228759765625] [-0.16680221259593964:136.22998046875] [-0.046948015689849854:268.1971435546875] [-0.24372683465480804:163.4339599609375] [-0.1286253035068512:238.58122253417969] [-0.073634326457977295:238.11131286621094] [-0.11389251053333282:123.90619659423828] [-0.10016298294067383:189.61802673339844] [-0.090493015944957733:83.897506713867188] [-0.12152978777885437:66.259880065917969] [-0.10219525545835495:75.994613647460938] [-0.13955184817314148:15.172976493835449] [-0.13707008957862854:13.051620483398438] [-0.13601735234260559:10.190740585327148] [-0.31877970695495605:35.337543487548828] [-0.13643038272857666:8.9827089309692383] [-0.16409048438072205:8.0124607086181641] [-0.16665066778659821:6.9717869758605957] [-0.35478854179382324:16.475151062011719] [-0.34981033205986023:21.536508560180664] [-0.33335015177726746:30.177352905273438] [-0.31809055805206299:37.496551513671875] [-0.32412287592887878:29.722330093383789] [-0.13584661483764648:10.001051902770996] [-0.040079101920127869:118.48690795898438] [-0.041951946914196014:95.289909362792969] [-0.140758216381073:11.423299789428711] [-0.14214326441287994:19.622617721557617] [-0.15002840757369995:39.765438079833984] [-0.086552731692790985:48.129013061523438] [-0.10035143047571182:36.292106628417969] [-0.34247332811355591:37.653709411621094] [-0.097610302269458771:37.464103698730469] [-0.4836173951625824:27.34619140625] [-0.44889408349990845:24.504467010498047] [-0.33082768321037292:37.919002532958984] [-0.48193538188934326:33.541828155517578] [-0.21838667988777161:26.777423858642578] [-0.29285609722137451:32.840236663818359] [-0.57522660493850708:12.374499320983887] [-0.55721086263656616:15.970011711120605] [-0.3805432915687561:46.55950927734375] [-0.5573154091835022:24.242368698120117] [-0.50579756498336792:25.210659027099609] [-0.31162652373313904:35.952976226806641] [-0.3453613817691803:45.105239868164062] [-0.33517596125602722:41.887428283691406] [-0.077612869441509247:161.58596801757812] [-0.051579859107732773:38.101779937744141] [-0.059010963886976242:53.712692260742188] [-0.027434192597866058:249.25938415527344] [-0.012479470111429691:283.64892578125] [-0.039309613406658173:101.85517883300781] [-0.072905689477920532:83.589530944824219] [-0.052343443036079407:65.62164306640625] [-0.068502709269523621:62.819091796875] [-0.061020396649837494:34.966426849365234] [-0.073291614651679993:53.737316131591797] [-0.16614335775375366:41.594913482666016] [-0.11018966883420944:66.675804138183594] [-0.15328019857406616:44.079959869384766] [-0.094557769596576691:39.555942535400391] [-0.27005064487457275:43.997688293457031] [-0.22980915009975433:150.41676330566406] [-0.52833229303359985:15.990108489990234] [-0.33437922596931458:53.417102813720703] [-0.45078387856483459:32.473628997802734] [-0.075574882328510284:195.27919006347656] [-0.043776672333478928:72.658172607421875] [-0.059036903083324432:106.50434875488281] [-0.015218148939311504:280.5035400390625] [-0.025857927277684212:142.81791687011719] [-0.02383597195148468:228.568359375] [-0.010795070789754391:280.80426025390625] [-0.065863609313964844:102.05670166015625] [-0.052619647234678268:48.810428619384766] [-0.079692639410495758:59.123603820800781] [-0.14207823574542999:43.416252136230469] [-0.17136389017105103:31.221715927124023] [-0.15075398981571198:42.351772308349609] [-0.16737107932567596:43.433887481689453] [-0.15688461065292358:37.022422790527344] [-0.11730160564184189:145.37046813964844] [-0.14364215731620789:48.117813110351562] [-0.16262686252593994:95.241729736328125] [-0.059033486992120743:265.70718383789062] [-0.28531357645988464:142.7626953125] [-0.025125991553068161:276.06057739257812] [-0.1610645204782486:227.6767578125] [-0.22105677425861359:49.222522735595703] [-0.246053546667099:35.785442352294922] [-0.22899533808231354:39.739650726318359] [-0.078089781105518341:178.1064453125] [-0.073986038565635681:51.471454620361328] [-0.097215987741947174:106.72971343994141] [-0.093354105949401855:66.869483947753906] [-0.13009488582611084:49.421306610107422] [-10.401013374328613:0.4033491313457489] [-0.42809814214706421:8.5617752075195312] [-25.571159362792969:22.62652587890625] [-28.942287445068359:2.0945711135864258] [-24.19343376159668:16.954166412353516] [-10.913846015930176:0.28629201650619507] [-23.977365493774414:32.845329284667969] [-21.406917572021484:0.30062782764434814] [-30.087812423706055:29.45915412902832] [-66.542335510253906:1.0016226768493652] [-0.62182486057281494:1.6139209270477295] [-0.55756843090057373:2.5079939365386963] [-4.1766581535339355:5.9386510848999023] [-0.60680311918258667:2.0079276561737061] [-0.31192833185195923:6.0975446701049805] [-0.55986034870147705:3.3189480304718018] [-0.56643277406692505:2.7847428321838379] [-0.089298747479915619:19.691347122192383] [-0.093251124024391174:22.076005935668945] [-0.096434421837329865:19.920604705810547] [-0.097005844116210938:15.606870651245117] [-0.099054895341396332:13.949599266052246] [-0.41858896613121033:2.865614652633667] [-3.1124484539031982:0.59534627199172974] [-2.0674128532409668:0.59342277050018311] [-2.279442310333252:0.54718756675720215] [-16.478736877441406:0.089570149779319763] [-9.8668394088745117:0.10141859203577042] [-2.1104962825775146:0.58168590068817139] [-2.1259076595306396:0.58107465505599976] [-5.1321249008178711:0.36969715356826782] [-3.6482241153717041:0.54986590147018433] [-4.2282285690307617:0.37698253989219666] [-7.8539638519287109:0.39480572938919067] [-2.26641845703125:0.57679146528244019] [-1.6506999731063843:0.61659508943557739] [-2.8233659267425537:0.57756918668746948] [-2.2287983894348145:0.57772082090377808]
tree_sizes=3104 3499 3523 3521 3517 3519 3527 3519 3528 3533 3539 3533 3540 3520 3520 3534 3539 3528 3528 3543 3527 3513 3524 3517 3536 3520 3543 3511 3532 3524 3530 3531 3543 3533 3532 3520 3535 3527 3521 3521 3513 3518 3533 3503 3525 3503 3523 3524 3513 3529 3511 3498 3518 3535 3520 3504 3533 3515 3520 3511 3518 3525 3496 3507 3501 3503 3492 3522 3522 3542 3486 3515 3551 3551 3527 3486 3507 3540 3500 3528 3530 3493 3527 3532 3557 3523 3483 3516 3543 3536 3541 3524 3545 3479 3554 3515 3536 3499 3541 3533 3533 3547 3504 3539 3553 3538 3511 3523 3558 3528 3516 3482 3528 3506 3521 3516 3543 3521 3499 3488 3541 3554 3522 3535 3475 3526 3529 3475 3515 3495 3536 3536 3512 3522 3537 3494 3564 3493 3517 3514 3534 3521 3485 3550 3488 3509 3526 3497 3518 3535 3515 3488 3490 3540 3523 3513 3521 3492 3529 3521 3506 3508 3519 3543 3510 3501 3513 3491 3505 3501 3501 3502 3524 3493 3541 3535 3549 3503 3474 3533 3465 3500 3537 3497 3513 3518 3486 3504 3526 3532 3531 3490 3489 3497 3488 3532 3520 3506 3479 3501 3495 3503 3500 3512 3499 3484 3550 3474 3500 3481 3485 3491 3516 3474 3526 3508 3506 3488 3186 3494 3503 3491 3516 3518 3516 3496 3530 3500 3469 3500 3501 3481 3509 3284 3504 3509 3529 3514 3491 3504 3487 3525 3469 3506 3488 3486 3529 3477 3489 3483 3491 3507 3494 3534 3468 3479 3487 3466 3481 3493 3472 3471 3499 3506 3515 3516 3487 3289 3515 3540 3491 3478 3492 3497 3492 3490 3527 3507 3487 3527 3521 3475 3499 3497 3486 3509 3497 3523 3475 3502 3479 3520 3469 3525 3508 3510 3515 3489 3482 3495

Tree=0
num_leaves=31
num_cat=0
split_feature=173 204 35 25 199 35 38 17 55 26 22 25 187 187 187 22 35 187 173 204 32 22 30 23 145 3 10 26 37 122
split_gain=29849.9 20763.3 17591.1 4074.13 3289.2 2921.54 1716.67 1579.79 1300.6 1295.33 1075.98 1109.96 956.714 2296.72 1535.46 796.026 1309.75 795.446 764.636 408.707 403.34 380.297 347.258 292.373 277.629 257.992 239.435 191.498 186.332 175.325
threshold=0.40073317289352423 -0.073983725160360322 -0.39963224530220026 0.65468540787696849 -0.16106411069631574 -1.1419705152511594 -0.15098433196544644 -0.72104045748710621 0.54862278699874889 0.22370823472738269 0.37319165468215948 1.2763525247573855 0.10422887280583383 0.10475754737854005 -0.079683613032102571 -0.1326252147555351 -0.39963224530220026 0.28913584351539617 1.0710567235946657 -0.044971143826842301 0.011407046113163235 -0.53407126665115345 0.95957863330841076 4.9910473823547372 1.0195000767707827 -1.083997845649719 -1.172255218029022 0.22370823472738269 -0.15158803015947339 0.39017026126384741
decision_type=2 2 2 2 2 2 2 2 2 2 2 2 2 2 2 2 2 2 2 2 2 2 2 2 2 2 2 2 2 2
left_child=1 2 5 4 8 7 -6 27 -4 12 11 -5 14 20 19 16 29 -15 -18 -3 -14 -9 28 -12 -20 -24 -27 -1 -11 -2
right_child=15 9 3 10 6 -7 -8 21 -10 22 23 -13 13 17 -16 -17 18 -19 24 -21 -22 -23 25 -25 -26 26 -28 -29 -30 -31
leaf_value=-0.024602203182374542 0.090839984796655268 0.076180408738548283 -0.072245142900007497 0.10000000000000001 -0.028705835251726555 0.10000000000000001 0.10000000000000001 0.034136382196815022 -0.038944705965010894 -0.062231759656652369 0.079839018781142204 -0.048682042833607914 -0.029559748427672956 0.10000000000000001 0.10000000000000001 0.095176414494596323 0.10000000000000001 0.046534336481511125 -0.055471124620060791 0.013129689174705254 0.040295566502463055 0.088747099767981452 -0.052693208430913352 0.0088471849865951746 0.022081575246132207 -0.093006993006993013 0.040758521363418149 -0.093846153846153857 0.004047976011994003 0.0065637065637065631
leaf_weight=817 1315.5 354.75 16663.75 158.25 4995.5 1959 273.25 1224.5 3558.25 291.25 652.25 607 1113 895 2075.5 6292 150.75 3123.5 329 933 253.75 431 106.75 186.5 177.75 35.75 520.75 113.75 166.75 64.75
leaf_count=3268 5262 1419 66655 633 19982 7836 1093 4898 14233 1165 2609 2428 4452 3580 8302 25168 603 12494 1316 3732 1015 1724 427 746 711 143 2083 455 667 259
internal_value=0 -0.0173339 -0.0370844 -0.0523542 -0.0572178 0.0539409 -0.0220308 0.0190527 -0.0663856 0.0459814 0.0249377 -0.0179353 0.0524661 0.0393993 0.0733888 0.0863801 0.0592197 0.0584422 0.00114068 0.0304989 -0.0165905 0.048354 -0.00461538 0.0640537 -0.0282684 0.0185074 0.0321653 -0.0330647 -0.0381004 0.0868864
internal_weight=49839.5 41509.8 31640 27094.8 25490.8 4545.25 5268.75 2586.25 20222 9869.75 1604 765.25 8748.5 5385.25 3363.25 8329.75 2037.75 4018.5 657.5 1287.75 1366.75 1655.5 1121.25 838.75 506.75 663.25 556.5 930.75 458 1380.25
internal_count=199358 166039 126560 108379 101963 18181 21075 10345 80888 39479 6416 3061 34994 21541 13453 33319 8151 16074 2630 5151 5467 6622 4485 3355 2027 2653 2226 3723 1832 5521
is_linear=0
shrinkage=0.05


Tree=1
num_leaves=31
num_cat=0
split_feature=173 186 35 9 9 186 186 34 199 38 33 17 186 186 29 22 35 173 9 9 9 2 145 29 142 137 108 16 163 105
split_gain=26993.6 18759.6 15893.6 4080.36 8108 3075.56 2969.78 2700.35 1754.99 1643.7 1461.98 1373.14 1141.9 2289.81 852.424 721.887 1185.26 691.577 463.999 383.586 324.823 276.423 250.772 214.212 151.917 128.99 128.342 102.335 88.2206 74.1778
threshold=0.40073317289352423 -0.052616540342569344 -0.39963224530220026 0.60006439685821544 -1.5778270959854124 -0.0073546820785850278 -0.0072881518863141528 -1.178840637207031 -0.16106411069631574 -0.15098433196544644 0.78069978952407848 -0.72104045748710621 0.038026332855224616 0.038039727136492736 1.8098871707916262 -0.1326252147555351 -0.39963224530220026 1.0710567235946657 0.60006439685821544 0.60006439685821544 -1.5778270959854124 -1.0084436535835264 1.0195000767707827 1.500785291194916 2.7891252040863042 0.17680929601192477 6.2090241909027108 4.9588079452514657 0.087022673338651671 0.15124864131212237
decision_type=2 2 2 2 2 2 2 2 2 2 2 2 2 2 2 2 2 2 2 2 2 2 2 2 2 2 2 2 2 2
left_child=1 2 7 4 10 -3 18 11 14 -10 -4 21 -8 -14 -5 16 25 -18 20 -13 -7 -1 26 -20 -24 29 -19 -17 -29 -2
right_child=15 5 3 8 -6 6 12 -9 9 -11 -12 19 13 -15 -16 27 17 22 23 -21 -22 -23 24 -25 -26 -27 -28 28 -30 -31
leaf_value=-0.088348600313055622 0.087281688070465518 0.095956342921459006 -0.047635353022498626 -0.072258058983918294 0.10120763069819901 -0.007586525709098302 0.095991299408287822 0.094445775775297322 -0.04156563451470123 0.095308390948710853 0.0350466608185869 0.059687290361067069 -0.044940845867456336 0.050478458632412619 0.018617677885194618 0.09143117333998145 0.095241872246060344 -0.059011657137986701 -0.052561655069432237 0.0039078194230520429 0.10001193517459013 -0.018376081352051356 0.042640444102650721 0.045744656606035904 -0.077676001037485704 -0.052189082665919331 0.10285192054051472 0.055482588019807669 -0.10499264633799342 0.036411186005320791
leaf_weight=173.49697718024254 1284.1467934399843 2192.2102239876986 6373.2929738461971 14471.24702487886 1176.8494042903185 571.27561371028423 952.51488353312016 2016.8105724900961 3968.2775100767612 232.17513984441757 583.59389467537403 1173.607602506876 739.35443294048309 4202.2672768235207 262.73268835246563 6179.4951252043247 150.37375433743 316.00685425102711 1063.0526453256607 417.98829557001591 79.9588233679533 756.87934172153473 145.73223431408405 58.461538061499596 31.996099472045898 17.496224880218506 12.740197286009787 88.798751294612885 9.4785183966159803 75.896201401948929
leaf_count=695 5147 8787 25520 57950 4712 2286 3818 8087 15877 931 2337 4698 2959 16821 1052 24774 603 1265 4254 1673 320 3028 583 234 128 70 51 356 38 304
internal_value=5.14627e-07 -0.0164846 -0.0352675 -0.0497863 -0.0201672 0.043731 0.028798 0.0513189 -0.0625098 -0.0340001 -0.0406994 0.0168306 0.0458642 0.036202 -0.0706376 0.082238 0.0563539 0.00108534 -0.0279446 0.0450384 0.00562446 -0.0314246 -0.02687 -0.0474372 0.0209801 0.0827075 -0.0527388 0.0906261 0.0400053 0.0844429
internal_weight=49778.2 41466 31607 27068.2 8133.74 9859.1 7666.89 4538.78 18934.4 4200.45 6956.89 2521.97 5894.14 4941.62 14734 8312.16 2034.39 656.849 1772.75 1591.6 651.234 930.376 506.475 1121.51 177.728 1377.54 328.747 6277.77 98.2773 1360.04
internal_count=199358 166039 126560 108379 32569 39479 30692 18181 75810 16808 27857 10094 23598 19780 59002 33319 8151 2630 7094 6371 2606 3723 2027 4488 711 5521 1316 25168 394 5451
is_linear=0
shrinkage=0.05


Tree=2
num_leaves=31
num_cat=0
split_feature=173 186 35 9 9 186 186 34 199 28 17 34 186 186 29 22 35 173 9 19 9 2 23 23 29 122 18 173 108 143
split_gain=24501.1 16982.6 14388.6 3702.51 7329.6 2807.78 2686.59 2466.22 1599.65 1266.1 1241.45 1133.21 1044.48 2069.85 773.709 660.336 1077.66 628.042 419.345 360.261 293.908 251.62 235.85 213.691 193.533 150.422 88.6215 79.767 67.5247 121.109
threshold=0.40073317289352423 -0.052616540342569344 -0.39963224530220026 0.60006439685821544 -1.5778270959854124 -0.0073546820785850278 -0.0072881518863141528 -1.178840637207031 -0.16106411069631574 0.96117836236953746 -0.72104045748710621 -0.42068839073181147 0.038026332855224616 0.038039727136492736 1.8098871707916262 -0.1326252147555351 -0.39963224530220026 1.0710567235946657 0.60006439685821544 -0.71438574790954579 -1.5778270959854124 -1.0084436535835264 -0.51990363001823414 0.14128234982490542 1.500785291194916 0.39017026126384741 -1.4045055508613584 1.0710567235946657 0.096313633024692549 0.074730549007654204
decision_type=2 2 2 2 2 2 2 2 2 2 2 2 2 2 2 2 2 2 2 2 2 2 2 2 2 2 2 2 2 2
left_child=1 2 7 4 9 -3 18 10 14 -4 21 -10 -8 -14 -5 16 25 -18 20 -12 -7 -1 -19 -24 -20 -2 -17 -27 -28 -30
right_child=15 5 3 8 -6 6 12 -9 11 -11 19 -13 13 -15 -16 26 17 22 24 -21 -22 -23 23 -25 -26 27 28 -29 29 -31
leaf_value=-0.084359610645483682 0.082702743422552058 0.091753738979488769 -0.0440948796518357 -0.068902568331131661 0.096286382788707284 -0.0072075173866177067 0.091784383228457 0.090356200530155861 0.038240106959486597 0.046346319055235008 0.056751614262206623 -0.041911087354267351 -0.042689041584498072 0.048039393688490577 0.017692955275956164 0.029519124143592448 0.091131780775723592 -0.076873105190583546 -0.049985728493199648 0.0020441676611729219 0.095256656083107544 -0.017462876560633316 0.027753949238401063 -0.05269264500391721 0.043524398338803998 0.097659226997629869 0.087865306696014417 -0.028540886779760008 -0.064841211375928659 0.07817788155942379
leaf_weight=172.6354653686285 1305.3273232728243 2178.3093609213829 6532.7577188163996 14418.406019553542 1175.1667804121971 571.25100001692772 946.50291727483273 2003.0101848691702 500.77374684810638 411.33531905710697 1185.4803536087275 3694.1220436990261 739.43163523077965 4195.01154088974 262.64336770772934 67.129295706748962 149.32245352864265 155.25689470767975 1061.9656226783991 403.30769222974777 79.756470397114754 756.64249932765961 217.06947110593319 133.20528516173363 58.373622015118599 16.977618142962456 6094.4124147891998 47.701187074184418 20.087207734584808 56.261062800884247
leaf_count=695 5262 8787 26208 57950 4712 2286 3818 8087 2006 1649 4754 14802 2959 16821 1052 270 603 623 4254 1617 320 3028 870 534 234 68 24590 191 81 227
internal_value=2.14199e-06 -0.0157058 -0.0336026 -0.0474283 -0.0191945 0.0416699 0.027413 0.0489508 -0.0595728 -0.0387376 0.0160146 -0.0323429 0.0436723 0.0344436 -0.0673534 0.0786051 0.0537959 0.00103617 -0.0265687 0.0428643 0.00534561 -0.0298905 -0.025576 -0.00283892 -0.0451135 0.0790148 0.0866583 0.00458553 0.0872799 0.0405496
internal_weight=49609.6 41346.9 31516.3 26995.2 8119.26 9830.6 7652.29 4521.08 18875.9 6944.09 2518.07 4194.9 5880.95 4934.44 14681 8262.75 2024.86 654.854 1771.35 1588.79 651.007 929.278 505.532 350.275 1120.34 1370.01 6237.89 64.6788 6170.76 76.3483
internal_count=199358 166039 126560 108379 32569 39479 30692 18181 75810 27857 10094 16808 23598 19780 59002 33319 8151 2630 7094 6371 2606 3723 2027 1404 4488 5521 25168 259 24898 308
is_linear=0
shrinkage=0.05


Tree=3
num_leaves=31
num_cat=0
split_feature=173 186 34 29 199 34 186 186 34 3 17 186 186 37 22 34 173 22 22 29 195 23 2 186 22 231 173 16 182 45
split_gain=22310 15403.5 12523 3276.67 2724.39 2638.35 2581.23 2434.35 2253.89 1253.08 1123.41 963.219 1873.16 780.082 608.919 868.117 539.01 337.388 332.252 328.845 332.048 263.431 230.393 206.093 155.842 126.805 111.355 88.8906 93.0837 59.5825
threshold=0.40073317289352423 -0.052616540342569344 -0.70309504866600026 1.1025183200836184 -0.16106411069631574 -0.42068839073181147 -0.0073546820785850278 -0.0072881518863141528 -1.178840637207031 0.26426266133785253 -0.72104045748710621 0.038026332855224616 0.038039727136492736 0.88278752565383922 -0.1326252147555351 -0.70309504866600026 1.0710567235946657 -0.53407126665115345 0.55364322662353527 0.54122260212898265 0.0081867291592061537 -0.51990363001823414 -1.0084436535835264 -0.0073546820785850278 0.55364322662353527 -3.1112215518951412 1.0710567235946657 4.9588079452514657 0.23329940438270572 1.219869136810303
decision_type=2 2 2 2 2 2 2 2 2 2 2 2 2 2 2 2 2 2 2 2 2 2 2 2 2 2 2 2 2 2
left_child=1 2 8 4 9 -6 -3 19 10 -4 22 -9 -13 18 15 25 -17 -12 -5 20 -8 -18 -1 -23 -21 26 -2 29 -29 -16
right_child=14 6 3 13 5 -7 7 11 -10 -11 17 12 -14 -15 27 16 21 -19 -20 24 -22 23 -24 -25 -26 -27 -28 28 -30 -31
leaf_value=-0.080831701066241018 0.089613256708211866 0.088095129322996707 -0.063199814087526465 0.0092913637555828953 0.054685138618743592 -0.034290218472051145 -0.059568000969812455 0.088122213497824023 0.087649596984432906 -0.031197219168021546 0.027233911613540437 -0.04058918935930992 0.045769665612219096 -0.070293567418459532 0.084068637583567071 0.087638160253991695 -0.072425571716951395 0.07997696333958651 0.063895392548847116 -0.0062711705777962201 -0.012695358633425968 0.021267613338489193 -0.016597448601789213 -0.076934038695317494 0.074545125520153341 0.080809476101149344 -0.0021289422614751948 0.052987140298563599 -0.1031221112031786 -0.089347247944489464
leaf_weight=171.19661892950535 51.765059053897858 2155.8822210133076 16480.176077201962 434.60098896920681 1031.4752505123615 4333.693562746048 689.72960285842419 936.78223429620266 1879.1431797295809 3755.8979721367359 1176.0982099920511 738.81455853581429 4183.1805695146322 169.29964976012707 6073.7433304786682 157.54091723263264 155.37081806361675 408.52875925600529 776.03309002518654 137.6832487732172 835.55263984203339 318.23025976121426 756.29922616481781 64.207253202795982 105.25454820692539 1171.6607961952686 91.612114876508713 86.84524093568325 10.728613808751104 4.9571860432624808
leaf_count=695 210 8787 66553 1748 4139 17396 2767 3818 7669 15154 4723 2959 16821 680 24754 643 627 1648 3127 552 3352 1278 3028 258 423 4765 370 351 43 20
internal_value=4.7609e-06 -0.0149904 -0.0320719 -0.0448161 -0.0488615 -0.0171843 0.0397877 0.0261329 0.0462322 -0.05726 0.0152508 0.0416514 0.0328068 0.030235 0.0753874 0.0514862 0.00630194 0.0408315 0.0442933 -0.0252857 -0.0338911 -0.017524 -0.0284538 0.00478058 0.0287431 0.0753781 0.0309938 0.0831672 0.0358223 0.0839272
internal_weight=49342 41155.3 31372.4 26981.2 25601.2 5365.17 9782.88 7627 4391.27 20236.1 2512.12 5858.78 4922 1379.93 8186.66 2010.39 695.349 1584.63 1210.63 1768.22 1525.28 537.808 927.496 382.438 242.938 1315.04 143.377 6176.27 97.5739 6078.7
internal_count=199358 166039 126560 108797 103242 21535 39479 30692 17763 81707 10094 23598 19780 5555 33319 8151 2806 6371 4875 7094 6119 2163 3723 1536 975 5345 580 25168 394 24774
is_linear=0
shrinkage=0.05


Tree=4
num_leaves=31
num_cat=0
split_feature=173 186 35 9 9 186 186 35 196 202 17 56 186 186 38 22 35 173 9 9 9 2 145 26 90 122 108 18 173 37
split_gain=20369.2 13988.1 11877.1 3285.49 6515.1 2387.66 2208.91 2074.34 1358.07 1180.84 1055.85 917.107 894.53 1696.8 805.289 565.781 908.52 525.26 369.281 346.313 262.03 212.023 205.874 175.04 140.874 133.796 107.602 77.9857 68.839 62.7774
threshold=0.40073317289352423 -0.052616540342569344 -0.39963224530220026 0.60006439685821544 -1.5778270959854124 -0.0073546820785850278 -0.0072881518863141528 -1.1419705152511594 -0.05862785875797271 -0.22820067405700681 -0.72104045748710621 1.2846911549568178 0.038026332855224616 0.038039727136492736 -0.27798402309417719 -0.1326252147555351 -0.39963224530220026 1.0710567235946657 0.60006439685821544 0.60006439685821544 -1.5778270959854124 -1.0084436535835264 1.0195000767707827 0.22370823472738269 2.3033320903778081 0.39017026126384741 6.2090241909027108 -1.4045055508613584 1.0710567235946657 1.7975946068763735
decision_type=2 2 2 2 2 2 2 2 2 2 2 2 2 2 2 2 2 2 2 2 2 2 2 2 2 2 2 2 2 2
left_child=1 2 7 4 9 -3 18 10 11 -4 21 -5 -8 -14 -10 16 25 -18 20 -12 -7 -1 26 -20 -24 -2 -19 -17 -27 -29
right_child=15 5 3 8 -6 6 12 -9 14 -11 19 -13 13 -15 -16 27 17 22 23 -21 -22 -23 24 -25 -26 28 -28 29 -30 -31
leaf_value=-0.077685198964689783 0.076376392889901723 0.084884410650397202 -0.043892983174780284 -0.050813400706509408 0.09267909187422535 -0.0059289343386681537 0.084908519113348666 0.084598972875653933 -0.021653208236770999 0.013366917334374721 0.05367725772505294 -0.075538947338684076 -0.038624432430833675 0.043649005982455365 0.10256032733336401 0.026267781423055605 0.084398437438768639 -0.052848168470912754 -0.031675168276769493 0.0019432618883380476 0.091176463041168804 -0.015776830598910108 0.071646611404817678 -0.081357274150200401 -0.01849979778926112 0.089697616507340358 0.095497001300417411 0.080908682999731141 -0.028105526678424982 -0.026525921026566746
leaf_weight=169.27189837396145 1279.1825230270624 2126.2907177060843 5831.3400930911303 11549.671879574656 1167.3036306798458 570.73080141842365 923.94508077204227 1893.7569561004639 1432.7721666246653 1064.7963268011808 1197.0660305321217 5553.6631446033716 737.6059961616993 4167.4894772917032 143.55678048729897 66.613097295165062 145.59860716760159 312.85697104036808 893.8780068308115 443.27479530870914 79.099185571074486 755.8663929104805 75.526477545499802 221.14893798530102 101.68971833586693 16.760710179805756 12.721002876758574 6016.0803997218609 47.676852151751518 13.628178983926771
leaf_count=695 5262 8787 23575 46916 4712 2286 3818 7836 5755 4282 4839 22562 2959 16821 577 270 603 1265 3596 1783 320 3028 303 892 408 68 51 24842 191 56
internal_value=8.16013e-06 -0.0143223 -0.0306382 -0.0432348 -0.0165608 0.0380527 0.0249398 0.0449071 -0.0547492 -0.0350518 0.0156078 -0.0588421 0.0397781 0.0312771 -0.010341 0.0725123 0.0493782 0.00076986 -0.0240686 0.039697 0.00589102 -0.0271042 -0.0234472 -0.0415289 0.019919 0.0728351 -0.047052 0.0800715 0.00253599 0.0806659
internal_weight=49010.9 40922.5 31202.3 26743.1 8063.44 9720.19 7593.9 4459.24 18679.7 6896.14 2565.48 17103.3 5829.04 4905.1 1576.33 8088.33 1992.01 648.393 1764.86 1640.34 649.83 925.138 502.794 1115.03 177.216 1343.62 325.578 6096.32 64.4376 6029.71
internal_count=199358 166039 126560 108379 32569 39479 30692 18181 75810 27857 10345 69478 23598 19780 6332 33319 8151 2630 7094 6622 2606 3723 2027 4488 711 5521 1316 25168 259 24898
is_linear=0
shrinkage=0.05


Tree=5
num_leaves=31
num_cat=0
split_feature=173 204 35 9 9 34 9 199 33 109 17 26 29 22 35 32 187 173 9 32 27 187 19 45 18 101 2 145 90 122
split_gain=18644.1 12722.3 10799.8 3000.97 5925.04 1961.61 1323.77 1307.12 1140.75 1053.17 920.911 878.625 637.864 527.844 835.241 506.675 524.131 481.376 396.621 388.518 365.333 376.635 327.52 303.57 244.343 220.676 195.959 186.96 127.708 123.911
threshold=0.40073317289352423 -0.073983725160360322 -0.39963224530220026 0.60006439685821544 -1.5778270959854124 -1.178840637207031 0.60006439685821544 -0.16106411069631574 -0.29743413627147669 0.88457170128822338 -0.72104045748710621 0.22370823472738269 1.500785291194916 -0.1326252147555351 -0.39963224530220026 -0.42915841937065119 0.10422887280583383 1.0710567235946657 -1.5778270959854124 0.011313574854284527 -0.35945644974708552 0.10422887280583383 -0.71438574790954579 2.6209640502929692 -1.4045055508613584 4.6772239208221444 -1.0084436535835264 1.0195000767707827 2.3033320903778081 0.39017026126384741
decision_type=2 2 2 2 2 2 2 2 2 2 2 2 2 2 2 2 2 2 2 2 2 2 2 2 2 2 2 2 2 2
left_child=1 2 5 4 8 10 18 12 -4 -9 26 15 -5 14 29 16 -8 -16 20 -17 21 -3 -12 25 -22 -13 -1 -19 -29 -2
right_child=13 6 3 7 -6 -7 11 9 -10 -11 22 23 -14 -15 17 19 -18 27 -20 -21 24 -23 -24 -25 -26 -27 -28 28 -30 -31
leaf_value=-0.074857452251575515 0.073611543468610166 0.064471488352717085 -0.044600398076340746 -0.061097644684364273 0.088918115824955235 0.081036778645063035 0.042167114088925789 0.0054441543873523252 0.0037227832534778081 -0.046775678802839289 0.050454427055497221 -0.04750144926041875 0.012114286085501304 0.077302047529560922 0.081614399276645447 0.086100618077802005 -0.0073441370794280827 -0.044961872489458404 0.084939489881163996 0.034677804753396269 -0.043189723430252784 0.0083025114280842732 -0.0019063373598608114 0.053838443046631095 0.065910155129338066 0.082345757429206454 -0.014998317053530635 0.068360548223768317 -0.017573642843176106 0.0024234972563562523
leaf_weight=166.94133614003658 1261.3162870258093 465.53175473213196 5281.9686369001865 14071.565578088164 1156.1140625625849 1922.7271093428135 861.19498316943645 1518.8615091443062 1588.613383859396 2650.3484717905521 1171.1157447695732 644.49611333012581 303.93789198994637 6001.3987288028002 143.09968650341034 452.96519599854946 1409.193450525403 323.72331979870796 1004.313489690423 1942.5731391012669 52.786490723490715 831.53798107802868 400.88407538831234 96.563783213496208 1848.1113902032375 34.47137314081192 755.35883963108063 75.206698760390282 101.69621747732162 64.240906223654747
leaf_count=695 5262 1936 21429 57781 4712 8087 3560 6116 6428 10692 4754 2617 1221 25168 603 1878 5722 1316 4170 7922 214 3370 1617 392 7556 142 3028 303 408 259
internal_value=1.2163e-05 -0.0137037 -0.0293114 -0.0413461 -0.0158053 0.0430854 0.0364491 -0.0524009 -0.0334271 -0.0277518 0.0138307 0.0201697 -0.0595497 0.0699314 0.0474695 0.0283608 0.0114363 0.00074222 0.0575289 0.0444012 0.0489207 0.0284621 0.0371016 -0.0291118 0.0628805 -0.0409091 -0.0258331 -0.0223744 0.0189595 0.0701615
internal_weight=48602.9 40632.2 30988.4 26571.4 8026.7 4417.03 9643.74 18544.7 6870.58 4169.21 2494.3 5441.46 14375.5 7970.68 1969.28 4665.93 2270.39 643.726 4202.28 2395.54 3197.97 1297.07 1572 775.531 1900.9 678.967 922.3 500.626 176.903 1325.56
internal_count=199358 166039 126560 108379 32569 18181 39479 75810 27857 16808 10094 22233 59002 33319 8151 19082 9282 2630 17246 9800 13076 5306 6371 3151 7770 2759 3723 2027 711 5521
is_linear=0
shrinkage=0.05


Tree=6
num_leaves=31
num_cat=0
split_feature=173 186 34 9 9 186 186 34 199 38 33 186 186 19 29 23 34 31 9 25 195 173 18 126 173 169 95 170 37 37
split_gain=17099.1 11574.3 9417.31 2834.94 5466.16 2163.55 1967.67 1813.29 1216.99 1440.28 1119.15 830.54 1508.04 803.227 637.985 394.236 691.442 369.122 337.228 315.086 318.441 212.043 178.491 152.724 109.759 298.888 188.588 82.4803 80.0477 75.5657
threshold=0.40073317289352423 -0.052616540342569344 -0.70309504866600026 0.60006439685821544 -1.5778270959854124 -0.0073546820785850278 -0.0072881518863141528 -1.178840637207031 -0.16106411069631574 -0.15098433196544644 0.78069978952407848 0.038026332855224616 0.038039727136492736 -0.71438574790954579 1.500785291194916 -0.5361536145210265 -0.70309504866600026 0.55595242977142345 0.60006439685821544 0.65468540787696849 0.0081867291592061537 1.0710567235946657 -1.3501853942871092 -0.13104972243309018 1.0713986754417422 1.4096910953521731 2.1855052709579472 1.1095995903015139 1.2221754193305971 -0.11826203763484953
decision_type=2 2 2 2 2 2 2 2 2 2 2 2 2 2 2 2 2 2 2 2 2 2 2 2 2 2 2 2 2 2
left_child=1 2 7 4 10 -3 19 13 14 -10 -4 -8 -13 18 -5 16 23 -15 -1 20 -7 -18 27 -2 25 28 -27 -17 -24 -21
right_child=15 5 3 8 -6 6 11 -9 9 -11 -12 12 -14 17 -16 22 21 -19 -20 29 -22 -23 24 -25 -26 26 -28 -29 -30 -31
leaf_value=0.054931774901380528 0.064022817713296779 0.080234170867225951 -0.037620856322447382 -0.058540054118538278 0.085545136042706055 -0.055807408149397053 0.08069431052752607 0.079256883206277079 -0.033370929236267 0.094908011423019967 0.034287975512395347 -0.037541355538384225 0.040136345535139034 -0.02492859158387753 0.013618309490944886 0.037491133229427508 0.079241290448134494 0.084200780363519467 -0.0025539986566937029 0.045902791652399855 -0.010582634203560154 -0.067897703357551534 0.072490088288248419 -0.097475649546824805 0.077488258570037771 0.059852580265269885 -0.0081544416146880176 -0.052310220070128699 -0.069352799905604265 -0.075073405441056132
leaf_weight=974.79517610371113 633.72920343279839 2061.4632014483213 6280.2209634333849 13944.244552314281 1168.6169122755527 716.63104881346226 898.92076560854912 1785.7637438476086 3935.5255256444216 231.69707356393337 592.09711736440659 736.23559382557869 4129.0678949803114 1079.7411122173071 313.20141386985779 97.350715145468712 28.638390317559242 83.477369830012321 345.5564079284668 175.5903557986021 852.00723791122437 168.85113707184792 2149.5598575621843 14.985125884413717 4292.598884254694 199.87349396944046 208.05273148417473 34.677994281053543 9.9928171634674055 13.932395428419111
leaf_count=3988 2682 8787 25602 57874 4828 2896 3818 7669 15918 931 2384 2959 16821 4372 1260 404 123 339 1395 711 3431 698 9132 61 18328 840 868 142 41 56
internal_value=1.54462e-05 -0.0131212 -0.0280807 -0.0391969 -0.0144257 0.0348533 0.0224169 0.0408287 -0.0500076 -0.0262386 -0.0314254 0.0365399 0.0283819 0.0131976 -0.0569549 0.0675878 0.0353546 -0.017097 0.0398869 -0.0238861 -0.0312435 -0.0465608 0.0714887 0.0602922 0.072597 0.0644193 0.0251673 0.0139044 0.0718337 0.0370095
internal_weight=48157.1 40318.8 30734.9 26465.6 8040.93 9583.85 7522.39 4269.33 18424.7 4167.22 6872.32 5764.22 4865.3 2483.57 14257.4 7838.31 846.204 1163.22 1320.35 1758.16 1568.64 197.49 6992.11 648.714 6860.08 2567.48 407.926 132.029 2159.55 189.523
internal_count=199358 166039 126560 108797 32814 39479 30692 17763 75983 16849 27986 23598 19780 10094 59134 33319 3564 4711 5383 7094 6327 821 29755 2743 29209 10881 1708 546 9173 767
is_linear=0
shrinkage=0.05


Tree=7
num_leaves=31
num_cat=0
split_feature=173 186 35 29 55 55 186 186 35 80 17 186 186 36 23 35 213 29 195 32 173 0 16 126 173 169 87 44 35 32
split_gain=15706.1 10551.1 8984.03 2414.36 2155 6326.36 2026.36 1790.03 1696.93 1237.81 812.091 781.336 1368.57 649.668 367.313 645.859 295.268 256.2 276.366 221.008 190.656 186.606 174.679 139.572 108.665 291.837 164.097 103.663 81.0874 80.1804
threshold=0.40073317289352423 -0.052616540342569344 -0.39963224530220026 1.1025183200836184 0.54862278699874889 1.8361917138099673 -0.0073546820785850278 -0.0072881518863141528 -1.1419705152511594 -0.36819553375244135 -0.72104045748710621 0.038026332855224616 0.038039727136492736 0.84096220135688793 -0.5361536145210265 -0.39963224530220026 0.1733641251921654 0.54122260212898265 0.16783767938613894 0.56650683283805858 1.0710567235946657 0.41309654712677008 4.9588079452514657 -0.13104972243309018 1.0713986754417422 1.4096910953521731 0.081732504069805159 2.4406034946441655 -0.39963224530220026 0.56650683283805858
decision_type=2 2 2 2 2 2 2 2 2 2 2 2 2 2 2 2 2 2 2 2 2 2 2 2 2 2 2 2 2 2
left_child=1 2 8 4 9 -6 -3 17 10 -4 21 -9 -13 19 15 23 -12 18 -8 -5 -17 -1 24 -2 25 -16 -27 -24 -29 -19
right_child=14 6 3 13 5 -7 7 11 -10 -11 16 12 -14 -15 22 20 -18 29 -20 -21 -22 -23 27 -25 -26 26 -28 28 -30 -31
leaf_value=-0.05057202205534167 0.06186802524586571 0.077905879759159372 -0.053760971268976582 0.013046001841861408 0.11030762594622978 -0.037858655485465381 -0.046326938178125443 0.078317805510887101 0.07718055432521348 -0.016405798165657872 0.059390040516080683 -0.035762098358927352 0.038352486463887114 -0.062677611638899858 0.069567568981261027 0.076978153785250608 0.016241413018829715 0.0017940939068775954 -0.001740651457543368 0.058213205058885713 -0.066073767564740107 -0.0048697683841477457 0.047705605507061884 -0.092321900404577273 0.075261372219302014 0.056259557836211949 -0.0074841755226688848 0.042663365635845829 -0.089222842055674101 0.060807033658941557
leaf_weight=384.45219446718693 625.82156945765018 2018.0148589462042 17201.662190914154 433.72256523370743 870.15781857073307 4187.0321142375469 971.65906269848347 880.35634399950504 1786.6909099370241 2545.8636576384306 697.98954112827778 734.27128450572491 4105.6627988815308 172.88369715213776 2118.5665734559298 27.088293135166168 917.85013809800148 145.34646642208099 541.10069169104099 721.13793535530567 166.18829654157162 533.01575344800949 80.048309460282326 15.029107496142386 4208.5010372698307 194.76523067057133 209.63728821277618 17.878554135560989 33.477719381451607 95.298391416668892
leaf_count=1559 2690 8787 71554 1765 3583 17301 3939 3818 7836 10507 2869 2959 16821 704 9161 119 3753 585 2180 2965 694 2164 334 61 18345 829 874 76 136 390
internal_value=1.99922e-05 -0.0125822 -0.026929 -0.0379709 -0.0414871 -0.0123646 0.0334466 0.0214419 0.0398659 -0.0489451 0.0135485 0.0349896 0.0271085 0.0277178 0.0654202 0.0340899 0.0348802 -0.0227559 -0.0303788 0.0412501 -0.0460246 -0.0240207 0.0692281 0.058252 0.0703427 0.0621379 0.0232156 0.0121345 -0.0433096 0.025164
internal_weight=47641.2 39944.2 30452.5 26132.5 24804.7 5057.19 9491.71 7473.7 4320 19747.5 2533.31 5720.29 4839.93 1327.74 7697 834.127 1615.84 1753.4 1512.76 1154.86 193.277 917.468 6862.87 640.851 6731.47 2522.97 404.403 131.405 51.3563 240.645
internal_count=199358 166039 126560 108379 102945 20884 39479 30692 18181 82061 10345 23598 19780 5434 33319 3564 6622 7094 6119 4730 813 3723 29755 2751 29209 10864 1703 546 212 975
is_linear=0
shrinkage=0.05


Tree=8
num_leaves=31
num_cat=0
split_feature=173 186 35 9 9 186 186 34 196 201 56 186 186 17 22 35 173 37 22 9 9 2 145 26 231 142 173 108 108 143
split_gain=14449.1 9619.27 8187 2473.52 4811.58 1904.59 1629.68 1621.44 1151.8 1059.88 840.055 738.042 1242.65 708.6 466.835 708.505 406.419 404.775 302.357 291.086 222.576 180.636 145.084 141.006 114.536 109.605 98.4514 90.0972 76.6882 113.882
threshold=0.40073317289352423 -0.052616540342569344 -0.39963224530220026 0.60006439685821544 -1.5778270959854124 -0.0073546820785850278 -0.0072881518863141528 -1.178840637207031 -0.05862785875797271 -0.24605295807123181 1.2846911549568178 0.038026332855224616 0.038039727136492736 -0.72104045748710621 -0.1326252147555351 -0.39963224530220026 1.0710567235946657 -0.54702535271644581 -0.53407126665115345 0.60006439685821544 -1.5778270959854124 -1.0084436535835264 1.0195000767707827 0.22370823472738269 -3.1112215518951412 2.7891252040863042 1.0710567235946657 6.2090241909027108 0.096313633024692549 0.074730549007654204
decision_type=2 2 2 2 2 2 2 2 2 2 2 2 2 2 2 2 2 2 2 2 2 2 2 2 2 2 2 2 2 2
left_child=1 2 7 4 9 -3 19 13 10 -4 -5 -8 -13 21 15 24 -17 -10 -15 20 -7 -1 27 -21 26 -24 -2 -18 -16 -30
right_child=14 5 3 8 -6 6 11 -9 17 -11 -12 12 -14 18 28 16 22 -19 -20 23 -22 -23 25 -25 -26 -27 -28 -29 29 -31
leaf_value=-0.070717030288751509 0.07774322992701907 0.07581681560179121 -0.037673271199089586 -0.042677011718985421 0.082947251546905354 -0.0058305253212995031 0.076187330975355363 0.074399117643763432 0.10414460253639973 0.015821561130839736 -0.066819732210345109 -0.034085460562638545 0.03666602122239513 0.019727491306063272 0.071291521740859828 0.075456645306398396 -0.048000554818000148 -0.011437851141004967 0.070498752556144503 -0.028504691806236961 0.084795275980963494 -0.012563759942380251 0.032780647430793682 -0.073632001591010784 0.068776564648950073 -0.07007227594735542 -0.010966930307027938 0.088731203533078298 -0.076770359509582151 0.059893407214811969
leaf_weight=162.32393907010555 48.338104069232941 1971.1242645084858 5654.7561983764172 11157.316394031048 1120.639138802886 568.98723562061787 860.23427884280682 1803.0899147093296 79.833154857158661 1107.2146262079477 5321.6331990212202 731.92949986457825 4080.4267979413271 1154.6953175216913 5582.7665208876133 134.73121921718121 305.88620509207249 1480.1790575683117 393.05937154591084 886.73171791434288 76.908625617623329 752.92974799871445 142.76030279695988 215.08806592226028 1124.0342428982258 31.643748864531517 88.609336316585541 12.541915982961653 21.538801565766335 52.155774131417274
leaf_count=695 211 8787 23364 46916 4712 2286 3818 8087 321 4493 22562 2959 16821 4723 24849 603 1265 6011 1648 3596 320 3028 583 892 4940 128 370 51 89 230
internal_value=2.41082e-05 -0.0120642 -0.0258128 -0.0363762 -0.0130111 0.0321292 0.020524 0.0383721 -0.0465862 -0.028914 -0.0504735 0.0335303 0.0259052 0.0119978 0.0634362 0.0419118 -0.00149954 -0.00552295 0.0326211 -0.0216908 0.00496054 -0.0228775 -0.0225379 -0.0373141 0.0635167 0.0141191 0.0203449 -0.0426151 0.0706226 0.0199505
internal_weight=47124.1 39579.1 30187.7 25921.6 7882.61 9391.43 7420.31 4266.1 18039 6761.97 16478.9 5672.59 4812.36 2463.01 7545.01 1888.55 627.563 1560.01 1547.75 1747.72 645.896 915.254 492.832 1101.82 1260.98 174.404 136.947 318.428 5656.46 73.6946
internal_count=199358 166039 126560 108379 32569 39479 30692 18181 75810 27857 69478 23598 19780 10094 33319 8151 2630 6332 6371 7094 2606 3723 2027 4488 5521 711 581 1316 25168 319
is_linear=0
shrinkage=0.05


Tree=9
num_leaves=31
num_cat=0
split_feature=173 186 34 25 55 55 186 34 186 199 186 186 19 37 22 34 173 31 18 127 23 25 195 38 22 122 109 22 173 122
split_gain=13319.1 8781.52 7143.83 2318.53 2047.77 5654.81 1795.55 1511.61 1484.67 1119.83 699.591 1128.79 653.863 600.172 448.492 676.619 410.774 306.774 273.471 264.07 255.731 255.517 270.866 216.648 212.715 136.406 85.9664 77.8028 47.0682 45.2406
threshold=0.40073317289352423 -0.052616540342569344 -0.70309504866600026 0.65468540787696849 0.54862278699874889 1.8361917138099673 -0.0073546820785850278 -1.178840637207031 -0.0072881518863141528 -0.16106411069631574 0.038026332855224616 0.038039727136492736 -0.71438574790954579 -0.46636158227920527 0.15220180153846743 -0.70309504866600026 1.0710567235946657 0.55595242977142345 -1.2961321473121641 0.26632139086723333 -0.51990363001823414 0.65468540787696849 0.0081867291592061537 -0.2991954088211059 0.37319165468215948 0.39017026126384741 0.88457170128822338 0.55364322662353527 1.0710567235946657 0.7112206518650056
decision_type=2 2 2 2 2 2 2 2 2 2 2 2 2 2 2 2 2 2 2 2 2 2 2 2 2 2 2 2 2 2
left_child=1 2 7 4 9 -6 -3 12 21 -4 -10 -12 19 18 15 25 -17 -14 -5 -1 -18 22 -8 -22 -15 -2 -16 -23 -27 -30
right_child=14 6 3 13 5 -7 8 -9 10 -11 11 -13 17 24 26 16 20 -19 -20 -21 23 27 -24 -25 -26 28 -28 -29 29 -31
leaf_value=0.041062774259884242 0.066937856126024584 0.073933990227138077 -0.051555516503620828 -0.0427093040247047 0.10527211636978451 -0.034419542183069828 -0.05024838185840827 0.073248533994680773 0.074268674775572099 -0.020361617030501433 -0.032502046236160251 0.035067943854160011 -0.023038728584657373 -0.049053295996583805 0.071597134876336704 0.073960822918024735 -0.061901344310542943 0.077845891468673531 0.049998814578484138 -0.061081666013692804 0.02769341202673721 -7.7374586292882009e-05 -0.0083074867133555077 -0.040971553554570571 0.026492246230764623 0.079261172844379502 -0.026927631952380449 0.064466493663518407 0.0095101905539201597 -0.080442298420927413
leaf_weight=1230.5337728410959 1699.9860344529152 1921.511597469449 15649.826085627079 85.991634845733643 878.56590795516968 4130.3222740143538 705.18346919119358 1661.1853252202272 838.87538069486618 3525.1360687613487 729.2756078094244 4053.7432981431484 1071.4371157586575 302.63932865858078 4612.9019512683153 207.6616648286581 158.51153227686882 81.054910197854042 1061.1429115384817 66.704496622085571 436.07846336066723 87.363447532057762 847.76178492605686 155.95786008238792 134.63117934763432 16.503624647855759 22.246801093220711 100.28724481165409 52.579688221216202 19.039392471313477
leaf_count=5115 7668 8787 66786 353 3628 17336 2896 7669 3818 14479 2959 16821 4372 1253 21040 949 678 339 4405 268 1866 352 3431 653 557 71 94 415 221 79
internal_value=2.90702e-05 -0.0115829 -0.0247806 -0.0345457 -0.0383846 -0.00991743 0.0308921 0.0364297 0.0196587 -0.0458208 0.0321521 0.0247654 0.0114625 0.0240497 0.0616375 0.045626 0.0117233 -0.0159435 0.0430492 0.0358105 -0.00549653 -0.0206933 -0.0273526 0.00960526 -0.0257936 0.0637937 0.0711243 0.0344172 0.00313843 -0.014403
internal_weight=46544.6 39163.2 29879.2 25768.3 24183.9 5008.89 9284 4110.92 7362.49 19175 5621.89 4783.02 2449.73 1584.41 7381.47 2746.32 958.21 1152.49 1147.13 1297.24 750.548 1740.6 1552.95 592.036 437.271 1788.11 4635.15 187.651 88.1227 71.6191
internal_count=199358 166039 126560 108797 102229 20964 39479 17763 30692 81265 23598 19780 10094 6568 33319 12185 4146 4711 4758 5383 3197 7094 6327 2519 1810 8039 21134 767 371 300
is_linear=0
shrinkage=0.05


Tree=10
num_leaves=31
num_cat=0
split_feature=173 186 35 9 9 186 34 186 199 38 126 9 186 19 56 22 35 173 9 31 9 18 143 9 139 121 173 137 109 231
split_gain=12291.8 8018.44 6836.24 2257.68 4300.81 1697.52 1450.22 1353.29 1040.98 1299.77 996.569 719.636 642.244 594.398 550.509 429.684 730.606 411.159 308.823 279.882 258.145 248.865 230.982 201.177 163.966 145.539 145.368 138.806 80.8485 62.3077
threshold=0.40073317289352423 -0.052616540342569344 -0.39963224530220026 0.60006439685821544 -1.5778270959854124 -0.0073546820785850278 -1.178840637207031 -0.0072881518863141528 -0.16106411069631574 -0.15098433196544644 -0.13374936580657956 0.60006439685821544 0.038026332855224616 -0.71438574790954579 1.2846911549568178 0.15220180153846743 -0.39963224530220026 1.0710567235946657 0.60006439685821544 0.55595242977142345 0.60006439685821544 -1.4045055508613584 0.074730549007654204 -1.5778270959854124 2.5886205434799199 -0.099357649683952318 1.0713986754417422 0.17680929601192477 0.88457170128822338 -3.1112215518951412
decision_type=2 2 2 2 2 2 2 2 2 2 2 2 2 2 2 2 2 2 2 2 2 2 2 2 2 2 2 2 2 2
left_child=1 2 6 4 10 -3 13 20 14 -10 -4 21 -13 18 -5 16 27 -18 -1 -15 23 -9 26 -7 -24 -22 -19 29 -17 -2
right_child=15 5 3 8 -6 7 -8 11 9 -11 -12 12 -14 19 -16 28 17 22 -20 -21 25 -23 24 -25 -26 -27 -28 -29 -30 -31
leaf_value=0.048981862076251353 0.035797335009085419 0.072230204589289568 -0.013526801555857899 -0.043179452460939183 0.080732360756821525 -0.0048049270418875139 0.070997271436454984 -0.044720132007736953 -0.028145345096293607 0.094115555065508005 -0.055781345339205868 0.072967908851468796 0.0071430659038017865 -0.021921463902914468 -0.064820422182629719 0.069868813710489558 0.072205942011323285 -0.055593483778869107 -0.0065046357383124701 0.07514783919167739 -0.03999803859059603 0.05501570049645043 0.03359436325533386 0.082137325953230228 -0.080180183403533556 0.026758740440600066 0.014426845226928754 -0.057596576325116999 -0.025454468816279809 0.067089795243623587
leaf_weight=946.47313533723354 176.52746230363846 1869.8049918413162 4683.2609671652317 9272.9028486758471 1096.5908721089363 567.62275648117065 1711.6598051190376 64.342025607824326 3856.0857124328613 230.37216860055923 1987.6328815370798 426.22834014892578 2837.308686286211 1069.7847218811512 4302.0179589539766 4493.68372169137 190.00854831933975 279.54043106734753 341.16065780818462 79.798439964652061 1001.6688176691532 2240.9952925443649 281.05831234157085 75.371025875210762 35.687765717506409 88.890158459544182 100.8722500950098 23.78376305103302 22.354722246527672 1609.0140747725964
leaf_count=3988 783 8787 19478 40062 4712 2286 8087 269 15877 931 8379 1979 11770 4372 18940 21040 893 1177 1395 339 4127 9580 1211 320 151 361 438 100 94 7432
internal_value=3.34393e-05 -0.0111219 -0.0237878 -0.0334973 -0.0110321 0.0297217 0.0357228 0.0188373 -0.0433775 -0.0212529 -0.0261168 0.0308466 0.01574 0.0109495 -0.0500377 0.0599667 0.0441732 0.00700534 0.0342806 -0.0151834 -0.0197414 0.0522321 -0.0107649 0.00538635 0.0207754 -0.0345568 -0.0370265 0.0623977 0.069397 0.0639961
internal_weight=45962.5 38750 29577.7 25428.9 7767.48 9172.23 4148.88 7302.43 17661.4 4086.46 6670.89 5568.87 3263.54 2437.22 13574.9 7212.53 2696.49 887.167 1287.63 1149.58 1733.55 2305.34 697.159 642.994 316.746 1090.56 380.413 1809.33 4516.04 1785.54
internal_count=199358 166039 126560 108379 32569 39479 18181 30692 75810 16808 27857 23598 13749 10094 59002 33319 12185 3870 5383 4711 7094 9849 2977 2606 1362 4488 1615 8315 21134 8215
is_linear=0
shrinkage=0.05


Tree=11
num_leaves=31
num_cat=0
split_feature=26 32 34 199 37 32 34 32 9 32 32 107 107 126 9 157 118 9 9 55 9 208 117 32 17 17 34 9 23 101
split_gain=11436.3 9323.55 5707.13 3836.45 2599.59 1085.89 1033.31 964.475 926.662 832.004 1817 765.047 814.101 726.524 1225.81 694.994 611.608 409.63 1002.39 480.535 398.139 387.253 382.271 326.191 295.08 852.204 224.656 217.957 181.909 171.842
threshold=0.22370823472738269 -0.42915841937065119 -0.70309504866600026 -0.16106411069631574 -0.24887488037347791 0.011313574854284527 -1.178840637207031 0.011407046113163235 0.60006439685821544 0.011313574854284527 0.011407046113163235 -0.21523284167051313 3.2379307746887211 -0.13374936580657956 0.60006439685821544 0.60333213210105907 -0.099489826709032045 0.60006439685821544 -1.5778270959854124 0.61899104714393627 0.60006439685821544 -0.13683526217937467 -0.1138891540467739 0.32385624945163732 -0.72104045748710621 1.3839019536972048 1.1710685491561892 0.60006439685821544 -0.13652776926755902 4.6772239208221444
decision_type=2 2 2 2 2 2 2 2 2 2 2 2 2 2 2 2 2 2 2 2 2 2 2 2 2 2 2 2 2 2
left_child=1 2 6 13 9 -6 15 -7 21 -3 16 17 -13 14 -4 20 -11 18 19 -2 -1 -5 -10 -9 29 -26 -12 -14 -15 -19
right_child=11 4 3 8 5 7 -8 23 22 10 26 12 27 28 -16 -17 -18 24 -20 -21 -22 -23 -24 -25 25 -27 -28 -29 -30 -31
leaf_value=0.025805582148401771 -0.051701710446314803 0.081694693194387422 -0.0008984548310309754 -0.012774024768027201 0.094987087246265825 -0.047938478445990473 0.070960421248750113 0.092783133562260381 -0.016317401264220259 -0.005228138007705452 0.065283367600790398 0.094427007990520367 0.025112030895829071 -0.061522907376007775 -0.04355301116768593 0.058936350176476526 0.045789274269547986 -0.062198101798050742 0.080675798375888563 0.037819794258629441 -0.014057716694379758 0.049528293063354038 0.019663690014821281 0.0089487629992789763 0.11387963597919853 -0.046178034077774738 0.030786194065279656 -0.046445475632376797 0.028952090848577722 0.067744519157258626
leaf_weight=1531.2633168101311 1422.2790828347206 2375.6170064657927 2398.5587728470564 292.46942014992237 264.75019963085651 1022.3381159752607 1644.6023265719414 129.74303811788559 2018.9632958173752 1657.7314358949661 5965.2596591114998 179.75669625401497 143.42092022299767 2909.9640747159719 5656.5771050155163 979.70773428678513 909.90436252951622 5726.5020953416824 185.09935027360916 167.56362049281597 1059.9320741593838 1694.3768270164728 1163.6323837786913 1097.7188760340214 87.559066414833069 1656.4369429349899 512.49014785885811 412.41368766129017 56.638218700885773 25.556422486901283
leaf_count=6510 6030 10841 10136 1229 1158 4368 7966 561 8394 7212 27545 754 607 12634 24801 4589 3951 25205 794 705 4402 7298 5005 4695 376 7245 2271 1712 251 113
internal_value=3.84701e-05 0.0133991 -0.00732145 -0.021974 0.0452283 -0.000795487 0.0381664 -0.0120669 0.0135645 0.0553614 0.0484454 -0.0471499 0.00193141 -0.0386423 -0.0308519 0.0230629 0.0128511 -0.0510441 -0.0294455 -0.0422665 0.00949944 0.0403572 -0.00316186 0.0178101 -0.0561584 -0.0381422 0.0625541 -0.0279816 -0.0597956 -0.0616208
internal_weight=45348.8 35342.2 21406.7 16191.2 13935.6 2514.55 5215.51 2249.8 5169.44 11421 9045.39 10006.6 735.591 11021.7 8055.14 3570.9 2567.64 9271 1774.94 1589.84 2591.2 1986.85 3182.6 1227.46 7496.05 1744 6477.75 555.835 2966.6 5752.06
internal_count=199358 155817 93215 69748 62602 10782 23467 9624 21926 51820 40979 43541 3073 47822 34937 15501 11163 40468 7529 6735 10912 8527 13399 5256 32939 7621 29816 2319 12885 25318
is_linear=0
shrinkage=0.05


Tree=12
num_leaves=31
num_cat=0
split_feature=173 186 35 9 9 186 34 186 56 56 201 186 186 17 22 35 173 22 9 143 55 9 198 23 137 173 191 109 231 6
split_gain=10610 6773.45 5728.42 1916.19 3781.24 1595.96 1316.85 1186.94 940.892 6439.31 847.945 640.549 983.278 528.257 405.202 643.756 372.668 256.408 215.113 199.742 186.928 181.061 175.733 149.119 130.453 128.403 119.222 75.2367 63.262 53.0696
threshold=0.40073317289352423 -0.052616540342569344 -0.39963224530220026 0.60006439685821544 -1.5778270959854124 -0.0073546820785850278 -1.178840637207031 -0.0072881518863141528 1.2846911549568178 0.029546909965574745 -0.24605295807123181 0.038026332855224616 0.038039727136492736 -0.72104045748710621 0.15220180153846743 -0.39963224530220026 1.0710567235946657 -0.53407126665115345 0.60006439685821544 0.074730549007654204 0.54862278699874889 -1.5778270959854124 -0.024321218021214005 0.53754708170890819 0.17680929601192477 1.0713986754417422 -0.16450888663530347 0.88457170128822338 -3.1112215518951412 1.3518940210342409
decision_type=2 2 2 2 2 2 2 2 2 2 2 2 2 2 2 2 2 2 2 2 2 2 2 2 2 2 2 2 2 2
left_child=1 2 6 4 10 -3 13 18 9 -5 -4 -9 -13 20 15 24 -17 -15 21 25 -1 -7 -10 -21 28 -18 -20 -16 29 -2
right_child=14 5 3 8 -6 7 -8 11 22 -11 -12 12 -14 17 27 16 19 -19 26 23 -22 -23 -24 -25 -26 -27 -28 -29 -30 -31
leaf_value=-0.036219096896383939 0.03736634791563128 0.069912947625227803 -0.032383715384232563 -0.041116499483986699 0.077400190265062341 -0.0056971859623166192 0.068145149313153811 0.070345083134741124 -0.059272213021783128 0.12406308938803744 0.015662966365422616 -0.031976985804857264 0.031270537398761143 0.016129920243801159 0.06705810058324127 0.070068540571011015 -0.052553179841744548 0.063953466104973031 -0.038531886459314435 0.032882510492054859 0.012243456917922873 0.078093001740123333 -0.010426879954867366 -0.06785591973381809 -0.057053991676038689 0.013569544072892487 0.015003740768090003 -0.024971418461408674 0.064070227389149137 -0.11317995254399811
leaf_weight=609.32243850827217 165.26044975221157 1784.3617627024651 5489.9636222720146 11179.901805758476 1059.9256196320057 566.92403353750706 1615.0223808437586 782.54958662390709 5235.4731421172619 622.89252549409866 1102.7460111379623 726.95896704494953 3972.6963569223881 1135.4444987475872 4265.3719838559628 182.21486620604992 275.41906951367855 372.13678531348705 963.65791174769402 270.04351480305195 295.46023684740067 72.746295258402824 190.85262350738049 42.519198447465897 23.789080440998077 100.10501457750797 116.57535411417484 22.324535921216011 1531.9625869840384 6.0688819885253897
leaf_count=2519 757 8787 23364 48849 4712 2286 8087 3818 23542 2632 4493 2959 16821 4723 21040 893 1177 1648 4014 1181 1204 320 787 181 100 438 474 94 7432 26
internal_value=3.98704e-05 -0.0103341 -0.0221198 -0.0310743 -0.0102546 0.0275803 0.0332023 0.0170922 -0.0403218 -0.0323991 -0.0243471 0.0284613 0.0214872 0.00980881 0.0571382 0.0415536 0.00648774 0.0279349 -0.0191472 -0.0103493 -0.0203935 0.00383183 -0.0575542 0.0191786 0.0592238 -0.0349266 -0.0327545 0.0665789 0.0608478 0.0320336
internal_weight=44780.7 37895.6 28909.1 24881.8 7652.64 8986.47 4027.39 7202.11 17229.1 11802.8 6592.71 5482.2 4699.66 2412.36 6885.08 2597.38 870.302 1507.58 1719.9 688.087 904.783 639.67 5426.33 312.563 1727.08 375.524 1080.23 4287.7 1703.29 171.329
internal_count=199358 166039 126560 108379 32569 39479 18181 30692 75810 51481 27857 23598 19780 10094 33319 12185 3870 6371 7094 2977 3723 2606 24329 1362 8315 1615 4488 21134 8215 783
is_linear=0
shrinkage=0.05


Tree=13
num_leaves=31
num_cat=0
split_feature=26 22 35 202 34 195 34 11 238 196 2 22 178 34 0 55 56 56 9 204 22 9 19 104 104 25 55 56 35 23
split_gain=9902.41 7025.1 5113.76 5153.06 1124.91 1115.74 930.983 905.711 686.056 645.679 623.299 601.34 505.365 433.025 365.097 301.106 341.42 2241.57 288.381 285.376 315.766 269.394 265.101 201.635 392.214 189.195 184.492 133.719 135.214 112.203
threshold=0.22370823472738269 0.15220180153846743 -0.39963224530220026 -0.22899451106786725 -1.178840637207031 -0.1626244783401489 0.33909395337104803 1.1312798261642458 -2.0511016845703121 -0.05843022093176841 -1.052809417247772 -0.53407126665115345 -0.075570203363895402 -0.42068839073181147 -0.30256354808807367 0.54862278699874889 1.2846911549568178 0.029546909965574745 0.60006439685821544 1.7397881746292116 0.36206011474132543 0.60006439685821544 -0.71438574790954579 0.90058261156082164 -0.29656739532947535 -0.40785568952560419 1.8361917138099673 1.2846911549568178 0.34262907505035406 0.35940362513065344
decision_type=2 2 2 2 2 2 2 2 2 2 2 2 2 2 2 2 2 2 2 2 2 2 2 2 2 2 2 2 2 2
left_child=1 2 4 7 11 13 27 8 -4 14 -7 22 19 -5 -2 16 17 -16 -11 20 -8 29 -1 24 -20 -13 -23 -3 -29 -17
right_child=9 6 3 5 -6 10 12 -9 -10 18 -12 25 -14 -15 15 21 -18 -19 23 -21 -22 26 -24 -25 -26 -27 -28 28 -30 -31
leaf_value=0.023626164109245659 -0.060608302055528376 0.066523517284923311 -0.060296685071727231 0.054899185177194915 0.068006187985694896 -0.0036601012342706387 0.098309191564757509 -0.055982149265981954 -0.019106088232543145 0.046422191157222376 0.039338909259802421 -0.015794911357558537 0.060948877097135513 -0.049357540340895643 -0.045585127538447359 -0.049645759851226628 -0.05809001463504259 0.11398134840998522 -0.05117108466171523 0.074572012510011915 0.0024793152221540952 0.1061652146961773 -0.0090286593345583321 -0.039121370919105954 0.095432088698177292 0.054911471727274314 -0.052932870378596335 0.055050949897135652 -0.044819617204007872 0.067322621544958522
leaf_weight=1391.2682392448187 3637.4366240501404 5287.2338007241488 1127.091592669487 118.15568293631077 2255.7188961803913 1023.5930466204882 91.00365623831749 2640.3957859426737 9805.0039178133011 222.46474146842957 4771.3715881407261 101.96977454423904 852.27125914394855 634.08498089015484 2496.3875856846571 23.92721489071846 2164.394554361701 241.37499529123306 89.263181731104851 177.22658595442772 1551.4140823185444 20.37279862165451 1123.3613836020231 422.60435916483402 93.315400019288063 1310.5880869030952 172.56860938668251 90.994333654642105 54.005636438727379 143.24223850667477
leaf_count=6016 16479 25874 5031 518 11490 4384 406 11600 43144 958 20794 434 4205 2792 11130 102 9833 1046 374 751 6734 85 4655 1774 389 6355 752 398 236 619
internal_value=4.37268e-05 0.0126367 9.5813e-05 -0.0121257 0.0398658 0.0243071 0.0533391 -0.0297005 -0.0233528 -0.0444991 0.0317438 0.0237024 0.0291753 -0.0329818 -0.0484275 -0.0400078 -0.0432495 -0.0315169 -0.00225696 0.0142935 0.00778909 0.00412064 0.00903826 -0.0201514 0.0237574 0.0498073 -0.0361336 0.0652244 0.0178539 0.0505808
internal_weight=44134.1 34406.8 26302.6 20119.7 6182.91 6547.21 8104.15 13572.5 10932.1 9727.35 5794.96 3927.19 2671.92 752.241 8899.7 5262.27 4902.16 2737.76 827.648 1819.64 1642.42 360.111 2514.63 605.183 182.579 1412.56 192.941 5432.23 145 167.169
internal_count=199358 155817 117213 88263 28950 28488 38604 59775 48175 43541 25178 17460 12096 3310 40046 23567 22009 12176 3495 7891 7140 1558 10671 2537 763 6789 837 26508 634 721
is_linear=0
shrinkage=0.05


Tree=14
num_leaves=31
num_cat=0
split_feature=173 97 187 35 32 32 187 199 35 187 187 198 9 22 35 173 8 8 105 11 38 11 92 143 38 142 122 173 8 8
split_gain=9153.83 5796.84 3596.02 3410.97 2196.26 2975.32 1265 1038.59 1019.02 984.462 545.402 473.813 418.443 369.072 545.597 339.399 328.678 1101.99 286.85 207.559 189.352 213.38 188.213 180.79 174.152 138.38 129.455 117.256 91.6979 204.196
threshold=0.40073317289352423 1.2894931435585024 -0.079683613032102571 -0.39963224530220026 -0.42915841937065119 0.011313574854284527 0.10422887280583383 -0.16106411069631574 -1.1419705152511594 0.10475754737854005 0.28913584351539617 -0.024003432132303711 0.60006439685821544 0.15220180153846743 -0.39963224530220026 1.0710567235946657 -1.2071415185928343 0.70696866512298595 1.9234618544578554 -2.1888239383697505 -0.29915094375610346 1.3511233925819399 0.61567443609237682 0.074730549007654204 -0.2991954088211059 3.5527549982070927 0.39017026126384741 1.0713986754417422 -1.2088987231254575 -2.164003729820251
decision_type=2 2 2 2 2 2 2 2 2 2 2 2 2 2 2 2 2 2 2 2 2 2 2 2 2 2 2 2 2 2
left_child=1 2 3 8 7 -6 -4 -5 12 22 -11 16 -1 14 26 -16 28 19 -19 -18 21 24 -8 27 -13 -25 -2 -17 29 -3
right_child=13 11 6 4 5 -7 9 -9 -10 10 -12 20 -14 -15 15 23 17 18 -20 -21 -22 -23 -24 25 -26 -27 -28 -29 -30 -31
leaf_value=0.030239737422127849 0.059673981734269924 -0.056617715185708642 0.070063894895899981 -0.036770468091961342 0.1002699938558242 -0.0064064037969948267 -0.022804395261289006 -0.0022014946394858367 0.066594455986317136 0.071586216565557567 0.024062650399330848 0.098445520407968903 -0.013011128897235505 0.063944833174821927 0.068887985863666637 -0.049389752549422683 -0.067083822568013915 -0.047071215693697536 0.060414974304470195 0.11964788865463337 0.092996697379279736 0.088822603592644572 0.033067363908454911 0.030222499276724775 -0.035612284724677326 -0.082409034449550389 -0.0037524303840922135 0.01395055699227506 -0.066213040040813353 0.11612987854091093
leaf_weight=1450.1216543614864 1557.9880874603987 73.166456416249275 1687.422211304307 9969.5501797795296 766.62410746514797 4434.9949974864721 1213.301277115941 2778.241310685873 1469.7558479309082 748.45255190134048 3122.118602886796 26.684991285204887 910.2562096118927 4035.2115793228149 177.30617767572403 271.22044242918491 16.950430288910866 5286.5053065568209 62.80853758752346 121.92099712789059 55.240364149212837 49.760401546955109 172.11449298262596 281.63350699841976 262.91426983475685 30.194099679589272 84.828552946448326 100.00766648352146 2344.1816585659981 22.326635167002678
leaf_count=6242 7942 321 8537 44707 3298 19239 5028 11656 7877 3659 13325 109 3756 21134 893 1177 79 24275 267 539 232 213 715 1234 1111 128 373 438 10757 97
internal_value=4.53537e-05 -0.00958134 0.00106523 -0.00892392 -0.0180643 0.00931576 0.0323984 -0.0292365 0.0339115 0.020306 0.0332523 -0.0463254 0.0135605 0.0545886 0.0395059 0.00724965 -0.048987 -0.0421992 -0.0458092 0.0968557 0.00714916 -0.00682495 -0.0158633 -0.00875031 -0.0232596 0.0193164 0.0563989 -0.0323261 -0.0642566 -0.0162287
internal_weight=43583.8 37045.4 28723 21779.5 17949.4 5201.62 6943.41 12747.8 3830.13 5255.99 3870.57 8322.46 2360.38 6538.39 2503.18 860.362 7927.86 5488.19 5349.31 138.871 394.6 339.36 1385.42 683.056 289.599 311.828 1642.82 371.228 2439.67 95.4931
internal_count=199358 166039 128039 96775 78900 22537 31264 56363 17875 22727 16984 38000 9998 33319 12185 3870 36335 25160 24542 618 1665 1433 5743 2977 1220 1362 8315 1615 11175 418
is_linear=0
shrinkage=0.05


Tree=15
num_leaves=31
num_cat=0
split_feature=173 97 32 32 35 106 32 106 35 118 34 3 3 3 22 35 208 173 107 107 3 145 177 142 122 109 186 35 173 202
split_gain=8486.18 5334.4 3293.84 2814.51 2615.73 2752.84 1714.63 1540.4 1173.69 1037.22 1024.18 706.406 399.943 1842.96 357.834 513.392 332.488 316.635 296.23 292.956 265.35 169.322 132.382 129.185 123.289 75.6239 58.951 68.2156 45.4287 40.5769
threshold=0.40073317289352423 1.2894931435585024 -0.42915841937065119 0.011313574854284527 -0.39963224530220026 -0.30403666198253626 0.011407046113163235 0.25985050201416021 -1.1419705152511594 -0.099805507808923707 0.33909395337104803 0.26426266133785253 -1.083997845649719 0.26415456831455236 0.15220180153846743 -0.39963224530220026 -0.14701481908559796 1.0710567235946657 -0.20537891983985898 3.2379307746887211 0.26426266133785253 1.0195000767707827 2.8420112133026127 3.5527549982070927 0.39017026126384741 0.88457170128822338 -0.052616540342569344 -0.39963224530220026 1.0710567235946657 -0.17454554140567777
decision_type=2 2 2 2 2 2 2 2 2 2 2 2 2 2 2 2 2 2 2 2 2 2 2 2 2 2 2 2 2 2
left_child=1 2 4 26 8 11 9 -7 16 -5 -8 -6 -3 -14 15 24 -1 -17 20 -20 -15 22 -19 -23 -2 -16 27 -4 -26 -27
right_child=14 12 3 6 5 7 10 -9 -10 -11 -12 -13 13 18 25 17 -18 21 19 -21 -22 23 -24 -25 28 29 -28 -29 -30 -31
leaf_value=0.036896137612329467 0.058357850946069149 -0.064015480319349269 0.070194342411767363 -0.035957597482538593 -0.040092064471913214 0.09071886523095124 0.055315775517334548 0.0010461126633144128 0.066184482766778449 0.029062334692896149 0.0088171320476567831 -0.0035309373598101713 0.11432857141414357 -0.053449129245969153 0.0632811271776655 0.067632736465290597 -0.004397969403647701 -0.042083284672000669 0.089860228818084378 -0.022129489724655681 -0.029887483298065731 0.032750993102793516 0.036236926940362138 -0.079346935931097387 0.073354247101610523 -0.096670169949363505 0.071942665713651627 0.099032820950223088 -0.020954215073889393 0.039419641922693739
leaf_weight=665.87028893828392 1514.5748145878315 2031.8202575445175 292.74078060686588 2152.2460150420666 8870.8061746060848 539.79456961154938 2246.5100612044334 4245.9347918331623 1242.391011223197 857.83937354385853 2504.4203764647245 1552.3574537932873 191.30480024218559 3868.0363229066133 3887.175414159894 171.70901331305504 1819.3332647383213 332.82839846611023 73.152177512645721 289.50230991840363 1729.1220105141401 252.31410245597363 64.392236709594727 28.61639216542244 15.656766682863234 11.156863391399385 776.88321900367737 684.62735411524773 69.240552291274071 10.759593218564985
leaf_count=2922 7942 9554 1505 9397 40099 2408 10335 18477 6849 3746 10927 6908 839 18165 21040 893 7666 1465 311 1237 7894 1108 282 122 73 46 3900 2900 300 48
internal_value=4.88965e-05 -0.00920565 0.0010265 0.0250262 -0.0110329 -0.0202328 0.0120977 0.0111605 0.0265033 -0.0174277 0.0308043 -0.0346469 -0.0447824 -0.0384294 0.0533699 0.0383851 0.00666612 0.00698107 -0.0433328 0.000460309 -0.0461703 -0.00837604 -0.029387 0.0213324 0.0550713 0.0627589 0.0822233 0.0903951 -0.00356185 -0.0298587
internal_weight=42993.1 36634.7 28451.8 9515.27 18936.5 15208.9 7761.02 4785.73 3727.59 3010.09 4750.93 10423.2 8182.94 6151.12 6358.42 2449.33 2485.2 849.86 5959.81 362.654 5597.16 678.151 397.221 280.93 1599.47 3909.09 1754.25 977.368 84.8973 21.9165
internal_count=199358 166039 128039 42710 85329 67892 34405 20885 17437 13143 21262 47007 38000 28446 33319 12185 10588 3870 27607 1548 26059 2977 1747 1230 8315 21134 8305 4405 373 94
is_linear=0
shrinkage=0.05


Tree=16
num_leaves=31
num_cat=0
split_feature=173 186 9 9 186 13 3 26 3 3 186 11 186 186 22 22 11 17 17 142 125 25 195 173 142 173 198 231 109 196
split_gain=7873.53 5001.82 3377.27 3725.19 1444.38 1369.54 1279.31 1133.67 993.758 3657.66 942.298 662.995 589.941 826.101 347.859 305.586 282.125 278.019 789.166 186.931 184.734 178.247 203.346 151.958 121.564 119.409 104.782 95.8964 71.3926 66.6388
threshold=0.40073317289352423 -0.052616540342569344 0.60006439685821544 -1.5778270959854124 -0.0073546820785850278 -0.51407110691070546 0.26426266133785253 0.22370823472738269 -1.083997845649719 0.26415456831455236 -0.0072881518863141528 1.1434552073478701 0.038026332855224616 0.038039727136492736 0.15220180153846743 0.55364322662353527 1.1434552073478701 -0.72104045748710621 1.3839019536972048 3.5527549982070927 2.0594651699066167 0.65468540787696849 0.0081867291592061537 1.0710567235946657 -0.29934355616569513 1.0713986754417422 -0.024003432132303711 -3.1112215518951412 0.88457170128822338 -0.035559581592679017
decision_type=2 2 2 2 2 2 2 2 2 2 2 2 2 2 2 2 2 2 2 2 2 2 2 2 2 2 2 2 2 2
left_child=1 2 3 5 -3 11 -7 8 15 -10 21 -1 -12 -14 16 -4 19 26 -19 24 23 22 -6 -18 -2 -25 -9 -26 -16 -23
right_child=14 4 7 -5 10 6 -8 17 9 -11 12 -13 13 -15 28 -17 20 18 -20 -21 -22 29 -24 25 27 -27 -28 -29 -30 -31
leaf_value=0.038928068780357414 -0.06751442920769217 0.066752037281114909 -0.045625760052154421 0.074147720541533943 -0.04393031553203483 -0.038757977073992478 0.008746787636202789 -0.05548109455426558 0.11171648285768204 -0.02167891371538715 0.067065039193531448 -0.032773099159898809 -0.03084476344884814 0.027441189420671593 0.062188177780029101 0.016381662739741697 0.066380640466372959 0.11993525142641961 -0.038372463810431537 -0.032772495137272845 0.059267910623871989 0.040095475588399772 -0.0070643081810682256 -0.064036385052129177 0.019860214954108477 0.010800242384032946 -0.019062042152412355 0.053216565944255591 -0.028402739141623209 -0.052850974401617713
leaf_weight=1713.8235540390015 22.67014479637146 1631.020808711648 3794.1628226786852 1599.1607482433319 677.60159529745579 3854.1793826520443 2241.4557332396507 4955.0869489610195 557.45316188037395 6574.2104538083076 716.51285427808762 397.10470886528492 721.24168418347836 3869.0887076854706 3760.923311188817 209.67480352520943 40.45025160908699 83.329842537641525 1424.1026140600443 75.137399464845657 89.94982373714447 159.54595331847668 834.94312857091427 156.05120556056499 247.0998792052269 80.954267799854279 205.69982025027275 1683.2588582783937 21.874733254313469 21.935535699129105
leaf_count=7804 102 8787 17285 7680 2896 17156 9907 23962 2493 29693 3818 1730 2959 16821 21040 874 218 351 6750 349 474 677 3431 702 1194 395 875 8751 94 90
internal_value=5.11633e-05 -0.00884301 -0.0192292 0.0043343 0.0243776 -0.0092698 -0.0212898 -0.0322072 -0.0224437 -0.0112519 0.0145055 0.0254398 0.0248696 0.0182832 0.052223 -0.0423785 0.0373144 -0.0485117 -0.0296213 0.0446175 -0.00300044 -0.0179618 -0.0235798 -0.0231875 0.0475949 -0.0384743 -0.0540295 0.0489467 0.0616643 0.0288611
internal_weight=42419.7 36241.3 27609.4 9805.72 8631.89 8206.56 6095.64 17803.7 11135.5 7131.66 7000.87 2110.93 5306.84 4590.33 6178.37 4003.84 2395.57 6668.22 1507.43 2028.17 367.406 1694.03 1512.54 277.456 1953.03 237.005 5160.79 1930.36 3782.8 181.481
internal_count=199358 166039 126560 44277 39479 36597 27063 82283 50345 32186 30692 9534 23598 19780 33319 18159 12185 31938 7101 10396 1789 7094 6327 1315 10047 1097 24837 9945 21134 767
is_linear=0
shrinkage=0.05


Tree=17
num_leaves=31
num_cat=0
split_feature=173 26 32 35 106 32 32 106 35 93 208 37 3 3 199 38 3 9 23 35 16 173 126 11 87 27 4 11 37 186
split_gain=7299.46 4644.99 3464.36 2284.09 2429.67 2141.09 1812.71 1366.68 1094.09 894.202 666.383 558.422 558.381 1913.45 503.458 438.132 314.838 290.886 272.912 335.349 153.51 111.521 108.106 103.757 125.913 126.618 90.1109 74.2167 59.204 47.0949
threshold=0.40073317289352423 0.22370823472738269 -0.42915841937065119 -0.39963224530220026 -0.30403666198253626 0.011313574854284527 0.011407046113163235 0.25985050201416021 -1.1419705152511594 2.2662233114242558 -4.4608440399169913 0.88278752565383922 -1.083997845649719 0.26415456831455236 -0.16029042005538938 -0.15098433196544644 0.26426266133785253 0.60006439685821544 -0.5361536145210265 -0.39963224530220026 4.9588079452514657 1.0710567235946657 -0.13104972243309018 1.1434552073478701 0.081732504069805159 0.071596048772335066 -0.18953421711921689 1.3741542100906374 1.6869409084320071 -0.052616540342569344
decision_type=2 2 2 2 2 2 2 2 2 2 2 2 2 2 2 2 2 2 2 2 2 2 2 2 2 2 2 2 2 2
left_child=1 2 3 8 10 29 9 -6 17 -7 -5 -8 -3 -14 16 -16 -15 -1 19 22 23 -21 27 28 -25 -26 -22 -2 -20 -4
right_child=18 12 5 4 7 6 11 -9 -10 -11 -12 -13 13 14 15 -17 -18 -19 20 21 26 -23 -24 24 25 -27 -28 -29 -30 -31
leaf_value=0.020856902601095288 0.047807867200959753 -0.061292984949593024 0.086800154680348782 0.067918187682746919 0.087484326397820389 -0.024048886489091679 0.044708716437985269 0.0014095360384229786 0.064878936230917547 0.069158065594711535 -0.034292196070458754 -0.020635804571254444 0.10779225085162501 -0.053665329855788924 -0.019249062451623666 0.091766275762222127 -0.027395489183656738 -0.014026008434971841 0.058882399376229778 0.066200585672975862 -0.054059989771615552 -0.054552380547757066 -0.09345026050416011 0.056917643064769333 -0.020218057486815665 0.052720729788914067 0.035680099770757083 -0.10757246657478894 -0.050620064145624213 0.069893291887662426
leaf_weight=1441.0511750429869 495.23080424964428 2189.9302651137114 941.4168267250061 162.07643784582615 518.55288143455982 2508.826637133956 3451.2035687714815 4167.0361115038395 1184.070608407259 286.7327277213335 9909.4032047688961 361.16740709543228 235.35728347301483 3408.0854982286692 1491.008169978857 94.508145749568939 1714.2245257645845 1021.1148584783077 4634.1574447751045 21.920479595661163 48.572404891252518 149.69516609609127 14.420970499515532 312.06160724163055 147.74917477369308 99.616500228643417 65.960818007588387 7.8062410801649085 12.376608192920683 732.29686591029167
leaf_count=6302 2654 10678 4346 709 2383 11095 15925 18301 6849 1269 45608 1552 1045 16844 6577 403 7994 4274 26121 119 223 694 61 1733 729 567 323 36 59 3885
internal_value=5.38737e-05 -0.0085018 0.00203207 -0.0100533 -0.0188092 0.0288879 0.016093 0.0109354 0.0253837 -0.0144889 -0.0326474 0.0385183 -0.0392794 -0.0323362 -0.0372529 -0.0126318 -0.0448739 0.00639019 0.0510472 0.0214396 0.0548817 -0.0391286 0.0415271 0.0561415 0.0357982 0.00915508 -0.00237778 0.0453966 0.0585907 0.0794029
internal_weight=41827.6 35818.1 26684.9 18403.3 14757.1 8281.64 6607.93 4685.59 3646.24 2795.56 10071.5 3812.37 9133.11 6943.18 6707.83 1585.52 5122.31 2462.17 6009.57 689.074 5320.49 171.616 517.458 5205.96 559.427 247.366 114.533 503.037 4646.53 1673.71
internal_count=199358 166039 122498 84426 67001 38072 29841 20684 17425 12364 46317 17477 43541 32863 31818 6980 24838 10576 33319 3564 29755 813 2751 29209 3029 1296 546 2690 26180 8231
is_linear=0
shrinkage=0.05


Tree=18
num_leaves=31
num_cat=0
split_feature=9 9 104 104 23 56 56 25 37 35 238 77 104 104 186 35 45 18 104 23 37 34 18 23 31 113 85 3 3 200
split_gain=6699 3913.48 2985.3 2597.17 2104.32 1763.09 4759.97 1628.41 1214.43 1185.42 1083.27 1035.6 898.319 966.883 802.4 749.816 577.006 567.738 378.345 352.365 334.627 259.255 210.745 207.846 190.46 196.512 170.557 140.222 833.122 85.2881
threshold=0.60006439685821544 -1.5778270959854124 -0.29656739532947535 0.90058261156082164 -0.5361536145210265 1.2846911549568178 0.029546909965574745 0.65468540787696849 -0.41719979047775263 -0.39963224530220026 -0.36384998261928553 1.415233910083771 0.91969856619834911 2.1120533943176274 -0.052375353872776025 -0.39963224530220026 0.28822234272956854 -1.2961321473121641 2.135697722434998 -0.13990685343742368 -0.46636158227920527 -1.178840637207031 -1.2961321473121641 -0.13990685343742368 0.55595242977142345 0.25295421481132513 2.4062209129333501 0.26426266133785253 1.6123836636543276 -0.20467109233140943
decision_type=2 2 2 2 2 2 2 2 2 2 2 2 2 2 2 2 2 2 2 2 2 2 2 2 2 2 2 2 2 2
left_child=1 4 5 -4 10 6 7 9 17 -2 15 16 24 -14 23 21 -12 26 -15 -19 -9 -1 -16 -10 25 -5 -6 -7 -29 -17
right_child=2 -3 3 12 8 27 -8 20 14 -11 11 -13 13 18 22 29 -18 19 -20 -21 -22 -23 -24 -25 -26 -27 -28 28 -30 -31
leaf_value=-0.010582915593492816 0.015044449525585854 0.068548408830592697 0.080103568151876858 -0.041912368959907499 -0.034706699493320357 -0.056049142534092822 0.10412982685327031 0.041439340653225659 0.11723360785743574 -0.036004245065721044 0.020698140234962924 -0.048715949301099813 0.077448252692499928 -0.032975971712790396 -0.097467971526699962 -0.06115436357727301 -0.061082073915830239 0.080039440591826994 0.019026292334740319 0.040722821007921704 -0.021476625607029606 0.064861609037331763 0.037650479821219648 -0.046777080793879655 0.022412745812730756 -0.0054850190787649978 0.069346938848984463 0.12431866098402891 -0.04854950419954334 -0.012385351764163477
leaf_weight=556.03597150743008 1278.2522396445274 3798.1354568302631 1219.0062713176012 1316.3160896003246 295.50425761938095 4035.6784738004208 762.80651228129864 1036.2892270833254 19.797873333096504 10307.281072422862 3558.1901707947254 745.86233499646187 542.28497107326984 560.36457811295986 30.248685732483864 1380.3551132977009 229.60484381020069 654.88806161284447 930.69741149246693 4390.0365608483553 265.47990053892136 143.1953539699316 627.77232699096203 795.06076517701149 178.69502027332783 515.11414307355881 45.437249749898911 75.813357636332512 864.02144314348698 95.874657705426216
leaf_count=2414 6239 20524 5996 5884 1333 20024 3474 5301 86 48704 16382 3401 2682 2478 127 6501 1006 3345 4369 22470 1182 838 2887 3520 884 2190 211 355 4137 414
internal_value=5.60514e-05 0.0236871 -0.0171231 0.0161302 0.0111288 -0.0265184 -0.0172308 -0.0244142 0.0306039 -0.030372 -0.00878074 0.00513664 -0.00315623 0.020276 -0.00962875 -0.0377845 0.0157409 0.0416064 -0.000516977 0.0458266 0.0286084 0.00486734 0.0314392 -0.0427923 -0.0268592 -0.0316667 -0.0208395 -0.0519985 -0.0346048 -0.057987
internal_weight=41254.1 17366 23888.1 5262.48 13567.9 18625.6 13650.1 12887.3 6858.75 11585.5 6709.12 4533.66 4043.47 2033.35 1472.88 2175.46 3787.8 5385.87 1491.06 5044.92 1301.77 699.231 658.021 814.859 2010.13 1831.43 340.942 4975.51 939.835 1476.23
internal_count=199358 85459 113899 24483 64935 89416 64900 61426 33979 54943 30956 20789 18487 9529 6620 10167 17388 27359 6847 25815 6483 3252 3014 3606 8958 8074 1544 24516 4492 6915
is_linear=0
shrinkage=0.05


Tree=19
num_leaves=31
num_cat=0
split_feature=173 26 27 34 27 202 27 34 34 0 195 34 0 109 109 22 34 208 173 196 56 56 173 166 173 122 8 8 55 205
split_gain=6370.78 4028.55 2579.17 2115.39 2050.23 1755.77 1409.35 1025.4 873.298 633.201 632.831 614.849 489.559 486.51 855.651 345.964 400.375 274.552 266.501 246.531 230.387 1814.54 149.396 123.143 118.933 113.209 105.909 319.972 96.2907 70.9465
threshold=0.40073317289352423 0.22370823472738269 -0.35945644974708552 -0.70309504866600026 0.071584943681955351 -0.22899451106786725 0.071596048772335066 -1.178840637207031 0.33909395337104803 1.5203512310981753 -0.1626244783401489 -0.42068839073181147 -0.30256354808807367 -0.28413781523704523 0.88457170128822338 0.15220180153846743 -0.70309504866600026 -0.14701481908559796 1.0710567235946657 -0.05843022093176841 1.2846911549568178 0.029546909965574745 1.0713986754417422 -0.061719890683889382 1.7420035600662234 0.39017026126384741 -1.1888634562492368 0.70696866512298595 1.3506536483764651 -0.096867453306913362
decision_type=2 2 2 2 2 2 2 2 2 2 2 2 2 2 2 2 2 2 2 2 2 2 2 2 2 2 2 2 2 2
left_child=1 2 3 7 -4 9 10 17 -8 -5 -6 -7 26 20 -15 16 25 -1 -18 -16 21 -14 23 -20 -24 -2 -3 -28 -22 -29
right_child=15 12 4 5 6 11 8 -9 -10 -11 -12 -13 13 14 19 -17 18 -19 22 -21 28 -23 24 -25 -26 -27 27 29 -30 -31
leaf_value=0.03378675948991898 0.053933420131877935 -0.064554570743020262 0.080849516304203298 -0.031250063143216177 -0.046882492008749332 0.037091661185851388 0.054085578602501662 0.063304019889218785 0.0073197058632708924 0.020610581720373496 0.0036882618911398511 -0.0040230734790274803 -0.038998352327151098 0.096462265341539677 -0.041890736438615281 0.059027260104782743 0.064394914378062704 -0.0031790829799206097 -0.04610015761073373 0.011385238281325736 -0.05100943526345697 0.10955081647423362 0.074289622176733836 0.0042501244955982327 -0.002349103065161175 -0.0066507938049678904 0.082462716493331922 -0.050642173204402542 0.00086219511583226875 -0.015214083129082668
leaf_weight=692.22114013135433 1313.4805966317654 1092.5484518408775 1378.7471654266119 9752.8695913851261 942.24540820717812 1446.673272266984 2192.3538399040699 1187.7648840844631 1832.8093117624521 626.38212063908577 1801.1936519145966 2448.0388257056475 2172.8146602213383 197.50031220912933 498.01732116937637 3446.5140734165907 163.75284679234028 1830.7751319855452 250.76079393923283 385.02066053450108 1767.2509610056877 227.0549474209547 85.197700530290604 235.46300920844078 124.74107202887535 81.917459011077881 47.673159956932068 2208.308578774333 94.238148272037506 150.9715676009655
leaf_count=3164 7668 5554 6907 45760 4372 6568 10570 7324 8245 2823 7977 10967 10603 863 2271 21134 949 7821 1139 1690 8993 993 429 1053 576 371 218 11235 443 678
internal_value=5.66391e-05 -0.00793321 0.00193751 -0.00863504 0.0252757 -0.0173783 0.0139554 0.024997 0.0327913 -0.0281203 -0.0136805 0.0112488 -0.0371076 -0.0275847 0.00238082 0.0490642 0.033839 0.00696304 0.00700274 -0.0186614 -0.035183 -0.0249439 -0.00649717 -0.0217171 0.0287526 0.0503768 -0.051644 -0.0457837 -0.0483834 -0.0483751
internal_weight=40675.3 34973.5 26132.1 17984.7 8147.35 14274 6768.6 3710.76 4025.16 10379.3 2743.44 3894.71 8841.4 5341.9 1080.54 5701.83 2255.31 2523 859.915 883.038 4261.36 2399.87 696.163 486.224 209.939 1395.4 3499.5 2406.95 1861.49 2359.28
internal_count=199358 166039 122498 84427 38071 66118 31164 18309 18815 48583 12349 17535 43541 25856 4824 33319 12185 10985 4146 3961 21032 11596 3197 2192 1005 8039 17685 12131 9436 11913
is_linear=0
shrinkage=0.05


Tree=20
num_leaves=31
num_cat=0
split_feature=173 186 34 3 3 186 33 34 55 186 186 186 213 9 34 22 34 173 56 92 3 23 23 137 122 109 105 92 43 144
split_gain=5919.52 3769.76 2897.87 1386.66 4063.43 1319.24 1279.87 979.217 858.879 773.677 551.955 676.567 411.701 402.353 402.23 338.056 378.233 249.877 194.585 146.314 146.189 138.119 153.242 111.561 93.1264 69.7411 57.0446 50.5423 46.9501 43.6582
threshold=0.40073317289352423 -0.052616540342569344 -0.70309504866600026 0.26426266133785253 1.6123836636543276 -0.0073546820785850278 0.78069978952407848 -1.178840637207031 0.54862278699874889 -0.0072881518863141528 0.038026332855224616 0.038039727136492736 0.1733641251921654 0.60006439685821544 -0.42068839073181147 0.15220180153846743 -0.70309504866600026 1.0710567235946657 1.2846911549568178 0.61567443609237682 0.26426266133785253 -0.51990363001823414 0.53754708170890819 0.17680929601192477 0.39017026126384741 0.88457170128822338 0.15124864131212237 2.5580992698669438 1.6001036763191225 -0.40360239148139948
decision_type=2 2 2 2 2 2 2 2 2 2 2 2 2 2 2 2 2 2 2 2 2 2 2 2 2 2 2 2 2 2
left_child=1 2 7 6 -5 -3 8 12 -4 19 -11 -12 24 -6 -8 16 23 -18 -14 20 -7 -19 -23 26 -1 -17 29 -21 -28 -2
right_child=15 5 3 4 13 9 14 -9 -10 10 11 -13 18 -15 -16 25 17 21 -20 27 -22 22 -24 -25 -26 -27 28 -29 -30 -31
leaf_value=0.041643355063124221 -0.14307419002393482 0.064451533784866552 -0.038776134804542804 0.10808125381214749 -0.00229565538170065 -0.031456515912555806 0.061302399266732067 0.062149762795141297 -0.011296325802434198 0.06483260014667433 -0.028915959149902744 0.024239484736855749 -0.00023540576531914668 -0.035815816995365783 0.00039416346679181728 0.058720872545580054 0.063500256752717824 -0.05060047997003201 -0.049601582065318263 0.083951441634601137 0.0046712601753420525 0.017489763837718716 -0.050665971831273429 -0.061217011083296663 -0.078042823900756633 -0.031844404129578972 0.024288579644934694 0.013463995435787086 -0.11659058432365091 0.054635278778278208
leaf_weight=674.45631563663483 2.7986076921224585 1487.374861061573 13550.530633673072 747.58909979462624 1690.9895154386759 1108.8248574286699 385.43679548799992 1195.0448765307665 3598.564828440547 657.71416799724102 711.99847151339054 3759.4502219706774 1393.631673425436 1902.3677554577589 913.41853006184101 3305.8730003833771 157.90516467392445 139.80043292045593 232.98532490432262 30.734675854444504 374.60837112367153 451.28863655030727 100.91525404155254 22.461076810956001 16.653992369771004 21.394744127988815 99.450028821825981 147.38767936825752 6.2879475206136695 1224.9823056906462
leaf_count=3052 14 8787 66543 3294 7545 4770 1750 7669 16478 3818 2959 16821 5974 9139 4048 21040 949 678 1000 134 1567 2070 449 98 68 94 534 623 28 7365
internal_value=5.84995e-05 -0.00762478 -0.0168864 -0.0234024 0.00202343 0.021802 -0.0293854 0.0253857 -0.0330098 0.0124604 0.022066 0.0157754 0.00642974 -0.0200416 0.0184688 0.0480756 0.032897 0.00674544 -0.00730627 -0.0171919 -0.0223332 -0.00620517 0.0050343 0.0492885 0.0387592 0.0581385 0.0511498 0.0256265 0.0159109 0.0541846
internal_weight=40112.9 34579.8 26301.7 22788.9 4340.95 8278.09 18448 3512.77 17149.1 6790.72 5129.16 4471.45 2317.73 3593.36 1298.86 5533.16 2205.89 849.909 1626.62 1661.56 1483.43 692.004 552.204 1355.98 691.11 3327.27 1333.52 178.122 105.738 1227.78
internal_count=199358 166039 126560 108797 19978 39479 88819 17763 83021 30692 23598 19780 10094 16684 5798 33319 12185 4146 6974 7094 6337 3197 2519 8039 3120 21134 7941 757 562 7379
is_linear=0
shrinkage=0.05


Tree=21
num_leaves=31
num_cat=0
split_feature=9 9 104 104 23 56 56 25 35 199 35 104 104 37 127 35 19 18 37 104 50 37 26 38 3 3 12 55 33 83
split_gain=5544.24 3535.1 2447.02 2359.08 1748.84 1538.12 4160.35 1287.76 1172.8 1365.48 901.268 752.55 892.173 686.236 660.734 456.562 442.222 438.659 350.822 317.67 292.908 283.087 205.663 134.644 128.399 697.111 107.29 92.7426 71.4759 70.8998
threshold=0.60006439685821544 -1.5778270959854124 -0.29656739532947535 0.90058261156082164 -0.13988278806209561 1.2846911549568178 0.029546909965574745 0.65468540787696849 -0.39963224530220026 -0.16106411069631574 -0.39963224530220026 0.91969856619834911 2.1120533943176274 0.81444492936134349 -0.021206919103860852 -1.1419705152511594 -0.71438574790954579 -1.4045055508613584 0.37555333971977239 2.135697722434998 -0.27052284777164454 -0.46636158227920527 0.22370823472738269 -0.29915094375610346 0.26426266133785253 1.6123836636543276 1.5949342250823977 0.70949888229370128 3.7929902076721196 0.22227659076452258
decision_type=2 2 2 2 2 2 2 2 2 2 2 2 2 2 2 2 2 2 2 2 2 2 2 2 2 2 2 2 2 2
left_child=1 4 5 -4 8 6 7 10 15 14 -2 22 -13 17 -10 16 -1 28 -11 -14 -19 -9 23 -5 -7 -26 29 -28 -6 -15
right_child=2 -3 3 11 13 24 -8 21 9 18 -12 12 19 26 -16 -17 -18 20 -20 -21 -22 -23 -24 -25 25 -27 27 -29 -30 -31
leaf_value=0.030926614742266503 0.012222760847404063 0.066643181833057327 0.077685350478568116 -0.02482892317830019 -0.067775543286755058 -0.053049506661286078 0.09897871219835136 0.037944856589275211 -0.01447402188774235 0.030774030680465209 -0.033038084378048872 0.075094343254656248 -0.03161563045812079 -0.062204020428190759 -0.054223334642366533 0.062292290519505744 -0.023216734821175967 0.04965425442268967 -0.065153505081408075 0.016514073313082685 0.015633972900699206 -0.020595700839280653 -0.053963888764924799 0.01028785909113003 0.11247103832639188 -0.045439385996928983 -0.067712565985259321 0.091130118637735041 0.04029140432655122 0.016409882400750718
leaf_weight=1150.1281676143408 1236.8423929363489 3511.6868295222521 1151.9524492621422 1128.9041884243488 106.28003887832165 3816.4951109141111 745.22390355169773 981.31959812343121 2921.9605567008257 1518.7573483586311 9933.1730093508959 510.40697854757309 552.0104013979435 214.604592487216 1627.9218924194574 653.83364155888557 561.12173660099506 3323.1588919758797 101.69217438995838 904.76395362615585 781.4827129393816 261.5545356720686 480.35036689043045 360.00390802323818 76.352410018444061 825.86053228378296 14.070321276783941 26.490050286054611 17.874055877327919 33.104704529047012
leaf_count=5819 6239 20524 5996 5074 462 20024 3474 5301 13194 6817 48704 2682 2478 976 7967 4261 2474 18346 446 4369 3748 1182 2285 1599 355 4137 68 120 84 153
internal_value=6.22748e-05 0.0221109 -0.0158408 0.0147513 0.0101298 -0.0245484 -0.0157656 -0.0226544 -0.00318441 -0.014659 -0.0280264 -0.00366563 0.0182077 0.0352882 -0.0286961 0.0267521 0.0131729 0.0403764 0.024754 -0.00172355 0.0431771 0.0256254 -0.0255159 -0.016338 -0.0490393 -0.0320758 -0.0393545 0.0360279 -0.0522175 -0.0516978
internal_weight=39529.4 16564.2 22965.2 5088.39 13052.5 17876.8 13158.1 12412.9 8535.42 6170.33 11170 3936.44 1967.18 4517.07 4549.88 2365.08 1711.25 4228.8 1620.45 1456.77 4104.64 1242.87 1969.26 1488.91 4718.71 902.213 288.27 40.5604 124.154 247.709
internal_count=199358 85459 113899 24483 64935 89416 64900 61426 40978 28424 54943 18487 9529 23957 21161 12554 8293 22640 7263 6847 22094 6483 8958 6673 24516 4492 1317 188 546 1129
is_linear=0
shrinkage=0.05


Tree=22
num_leaves=31
num_cat=0
split_feature=173 97 32 32 3 3 32 35 106 35 34 93 199 8 8 18 18 32 35 173 11 108 122 108 144 3 8 8 18 231
split_gain=5176.58 3372.38 2107.42 2210.88 1721.68 1843.45 1200.07 1195.31 975.015 799.112 743.053 740.028 568.327 375.817 1038.33 264.348 462.877 249.836 383.11 179.674 152.041 106.252 100.059 98.8133 96.479 81.011 78.7302 173.136 71.2135 58.2984
threshold=0.40073317289352423 1.2894931435585024 -0.42915841937065119 0.011313574854284527 0.26426266133785253 1.6123836636543276 0.011407046113163235 -0.39963224530220026 0.25987173616886144 -1.1419705152511594 0.33909395337104803 2.2662233114242558 1.2773973941802981 -1.2071415185928343 0.70696866512298595 -0.59065431356430043 -0.42785738408565516 -0.42915841937065119 -0.39963224530220026 1.0710567235946657 -2.1888239383697505 3.0055729150772099 0.7112206518650056 0.096313633024692549 2.7906644344329838 0.2883144617080689 -1.2088987231254575 -2.164003729820251 -1.3501853942871092 -3.1112215518951412
decision_type=2 2 2 2 2 2 2 2 2 2 2 2 2 2 2 2 2 2 2 2 2 2 2 2 2 2 2 2 2 2
left_child=1 2 4 -4 7 -6 11 9 -9 -1 -8 -5 -7 26 20 25 -17 18 22 -20 -15 24 29 28 -21 -16 27 -3 -19 -2
right_child=17 13 3 6 5 12 10 8 -10 -11 -12 -13 -14 14 15 16 -18 23 19 21 -22 -23 -24 -25 -26 -27 -28 -29 -30 -31
leaf_value=-0.0028616063347837012 0.017613885796302731 -0.047847032048750938 0.075646900762232849 -0.023872055537811458 0.086897745645064361 -0.0083862360056410224 0.048145807164845553 -0.029945398718019635 0.010664863079965968 0.061228405744388363 0.0070195839106492386 0.063304940137882071 0.046523739753115897 -0.051710134546910792 -0.052240793110917998 0.10813397909886822 -0.026829575398538842 0.00082571506565707979 0.063230075383066325 -0.037183604400068265 0.11123428855824276 0.073423972775013016 -0.080711065729618239 -0.033652125766528998 0.045348465259694055 -0.029276320028136113 -0.056680825230551159 0.11209980098290083 0.05494911978643903 0.052908125704046655
leaf_weight=1757.494921207428 135.01845329999924 70.941153213381767 1536.005625449121 2583.4188183248043 830.61527749896049 2361.1705719381571 2034.2321594804525 9678.2043609917164 1744.4186034500599 672.46983341872692 2387.1515488773584 268.76116578280926 588.72980445623398 15.884418889880179 1674.1593687534332 65.070409059524536 2681.98946608603 61.809582754969597 74.468419849872589 332.15920478105545 144.99225497245789 27.524542674422264 15.280539244413374 32.40292888879776 39.635508462786674 498.35236313939095 2086.172343865037 22.217882551252842 3634.5607800483704 876.77290189266205
leaf_count=7787 735 338 8305 11869 4209 11119 10335 46964 7938 4607 10927 1274 2705 85 9036 298 13897 316 455 1550 658 129 70 153 242 2468 11120 100 24061 5608
internal_value=6.43389e-05 -0.00711762 0.00116976 0.0211399 -0.00880739 0.0210995 0.00962925 -0.0169693 -0.0237436 0.0148747 0.0259413 -0.0156574 0.00257249 -0.0373031 -0.0298523 -0.0339399 -0.0236327 0.0463486 0.0291229 -0.00807083 0.0951457 -0.0213676 0.0462804 0.053282 -0.0283852 -0.046973 -0.0546726 -0.00970065 0.0540441 0.0481983
internal_weight=38932.1 33702.5 26442.7 8809.57 17633.1 3780.52 7273.56 13852.6 11422.6 2429.96 4421.38 2852.18 2949.9 7259.78 5080.45 4919.57 2747.06 5229.63 1500.86 473.788 160.877 399.319 1027.07 3728.77 371.795 2172.51 2179.33 93.159 3696.37 1011.79
internal_count=199358 166039 128039 42710 85329 18033 34405 67296 54902 12394 21262 13143 13824 38000 26442 25699 14195 33319 8789 2376 743 1921 6413 24530 1792 11504 11558 438 24377 6343
is_linear=0
shrinkage=0.05


Tree=23
num_leaves=31
num_cat=0
split_feature=9 9 104 104 23 29 35 199 55 55 104 104 127 37 17 17 34 18 19 11 37 37 35 104 78 3 29 113 29 12
split_gain=4848.95 3272 2127.42 2183.99 1514.58 1202.69 990.1 1179.74 981.869 3348.46 650.396 835.187 627.321 609.201 523.907 951.408 441.733 396.95 384.989 376.393 323.395 314.013 309.438 280.055 266.256 259.536 147.93 160.307 128.356 98.8145
threshold=0.60006439685821544 -1.5778270959854124 -0.29656739532947535 0.90058261156082164 -0.13988278806209561 0.54122260212898265 -0.39963224530220026 -0.16106411069631574 0.54862278699874889 1.8361917138099673 0.91969856619834911 2.1120533943176274 -0.021206919103860852 0.81444492936134349 -0.72104045748710621 1.3839019536972048 -1.178840637207031 -1.4045055508613584 -0.71438574790954579 1.1434552073478701 0.88278752565383922 0.50216954946517955 -0.39963224530220026 2.135697722434998 1.2858151793479922 0.26426266133785253 1.500785291194916 0.25295421481132513 1.1024906039237978 1.5949342250823977
decision_type=2 2 2 2 2 2 2 2 2 2 2 2 2 2 2 2 2 2 2 2 2 2 2 2 2 2 2 2 2 2
left_child=1 4 5 -4 6 8 16 12 14 -10 26 -12 -8 17 25 -16 18 -6 -1 20 28 -9 -11 -13 -19 -2 27 -5 -7 -15
right_child=2 -3 3 10 13 19 7 21 9 22 11 23 -14 29 15 -17 -18 24 -20 -21 -22 -23 -24 -25 -26 -27 -28 -29 -30 -31
leaf_value=0.028676924456310315 -0.046547282826468937 0.065325887559809878 0.075828926444558284 -0.036751468323450033 -0.050243065015888558 0.078024997834107199 -0.012901907456374845 0.028419644743857577 0.094376569139084765 0.018254558706301442 0.073267246063309172 -0.03055228836531635 -0.052150412993666288 -0.049646664902166723 0.10439539611746021 -0.024743714522617824 0.0606871215425724 0.044281899820554839 -0.022276898294853287 -0.041046505663019907 -0.05899188957118956 -0.071838568165149788 -0.031491167482924867 0.014870338291772046 -0.011028072083732993 -0.022725786173600132 0.032472614406335767 -0.0037087794601333261 0.029590039691830584 0.035457344995229782
leaf_weight=1101.2818014472723 6371.7582070082426 3311.9677366316319 1105.8166143447161 1327.3076002299786 122.74905906617641 156.66171364486217 2883.227084249258 1519.6617650538683 687.32101032882929 347.64064169675112 487.91931784898043 548.13122718036175 1573.8044247180223 242.35844969749451 148.20035895705223 3790.1679061278701 630.43774197250605 3728.6073646694422 558.81753051280975 225.36969690024853 97.191835582256317 82.330682009458542 3102.2292005717754 890.87885931134224 231.07089442014694 1393.4593905732036 108.49222731590271 507.3787352591753 1078.0807771831751 39.694786816835403
leaf_count=5680 34105 20524 5996 6179 546 895 13194 6894 3299 1708 2682 2478 7967 1129 700 19519 4400 21017 2474 1086 448 369 14881 4369 1077 6992 581 2198 5783 188
internal_value=6.70606e-05 0.0210607 -0.0149702 0.0138594 0.00952975 -0.0232156 -0.0029472 -0.0135335 -0.0273375 -0.00640043 -0.00384737 0.0167362 -0.0267608 0.033399 -0.0347387 -0.0198842 0.0250562 0.0383091 0.011525 0.0187117 0.0288231 0.0232671 -0.0264783 -0.00243153 0.0410542 -0.0422725 -0.0242588 -0.0276136 0.0357354 -0.0376695
internal_weight=38400 16026 22374 4975.92 12714 17398.1 8349.56 6059.02 15840.8 4137.19 3870.11 1926.93 4457.03 4364.48 11703.6 3938.37 2290.54 4082.43 1660.1 1557.3 1331.93 1601.99 3449.87 1439.01 3959.68 7765.22 1943.18 1834.69 1234.74 282.053
internal_count=199358 85459 113899 24483 64935 89416 40978 28424 81204 19888 18487 9529 21161 23957 61316 20219 12554 22640 8154 8212 7126 7263 16589 6847 22094 41097 8958 8377 6678 1317
is_linear=0
shrinkage=0.05


Tree=24
num_leaves=31
num_cat=0
split_feature=26 32 35 199 37 32 34 3 208 3 32 22 11 3 3 32 3 35 199 49 128 32 109 109 3 3 27 11 34 109
split_gain=4480.69 4051.78 2072.84 1591.63 1448.09 789.627 744.51 657.051 581.414 578.706 530.273 1020.77 487.177 479.127 1623.97 474.402 466.699 437.129 398.858 391.495 351.494 323.06 258.496 615.927 248.123 1218.46 247.606 232.279 226.093 222.057
threshold=0.22370823472738269 -0.42915841937065119 -0.39963224530220026 -0.16106411069631574 -0.40900167822837824 0.011313574854284527 -1.178840637207031 -1.083997845649719 -4.4608440399169913 0.26415456831455236 0.011313574854284527 0.15220180153846743 -1.5739145278930662 -1.083997845649719 0.26415456831455236 0.011407046113163235 0.26426266133785253 0.028755131177604202 -0.16029042005538938 -0.13483855873346326 -0.060817530378699296 0.32385624945163732 0.88457170128822338 -0.28528785705566401 0.26426266133785253 1.6123836636543276 0.80852824449539196 1.3741542100906374 1.1938974857330324 0.88468727469444286
decision_type=2 2 2 2 2 2 2 2 2 2 2 2 2 2 2 2 2 2 2 2 2 2 2 2 2 2 2 2 2 2
left_child=1 2 6 8 10 -6 19 20 12 -9 -3 17 -4 -2 -15 26 -10 -12 24 27 -5 -17 23 -20 -16 -26 -7 -1 -13 -24
right_child=13 4 3 7 5 15 -8 9 16 -11 11 28 -14 14 18 21 -18 -19 22 -21 -22 -23 29 -25 25 -27 -28 -29 -30 -31
